{"learner":{"attributes":{"scikit_learn":"{\"_estimator_type\": \"classifier\"}"},"feature_names":["temperature","rainfall","soil_moisture","vib_rms","porepressure","displacement","center_lat","center_lon","dem_mean_elev","dem_max_slope","dem_mean_slope","dem_aspect","month","day_of_week","day_of_year"],"feature_types":["float","float","float","float","float","float","float","float","float","float","float","float","int","int","int"],"gradient_booster":{"model":{"gbtree_model_param":{"num_parallel_tree":"1","num_trees":"500"},"iteration_indptr":[0,1,2,3,4,5,6,7,8,9,10,11,12,13,14,15,16,17,18,19,20,21,22,23,24,25,26,27,28,29,30,31,32,33,34,35,36,37,38,39,40,41,42,43,44,45,46,47,48,49,50,51,52,53,54,55,56,57,58,59,60,61,62,63,64,65,66,67,68,69,70,71,72,73,74,75,76,77,78,79,80,81,82,83,84,85,86,87,88,89,90,91,92,93,94,95,96,97,98,99,100,101,102,103,104,105,106,107,108,109,110,111,112,113,114,115,116,117,118,119,120,121,122,123,124,125,126,127,128,129,130,131,132,133,134,135,136,137,138,139,140,141,142,143,144,145,146,147,148,149,150,151,152,153,154,155,156,157,158,159,160,161,162,163,164,165,166,167,168,169,170,171,172,173,174,175,176,177,178,179,180,181,182,183,184,185,186,187,188,189,190,191,192,193,194,195,196,197,198,199,200,201,202,203,204,205,206,207,208,209,210,211,212,213,214,215,216,217,218,219,220,221,222,223,224,225,226,227,228,229,230,231,232,233,234,235,236,237,238,239,240,241,242,243,244,245,246,247,248,249,250,251,252,253,254,255,256,257,258,259,260,261,262,263,264,265,266,267,268,269,270,271,272,273,274,275,276,277,278,279,280,281,282,283,284,285,286,287,288,289,290,291,292,293,294,295,296,297,298,299,300,301,302,303,304,305,306,307,308,309,310,311,312,313,314,315,316,317,318,319,320,321,322,323,324,325,326,327,328,329,330,331,332,333,334,335,336,337,338,339,340,341,342,343,344,345,346,347,348,349,350,351,352,353,354,355,356,357,358,359,360,361,362,363,364,365,366,367,368,369,370,371,372,373,374,375,376,377,378,379,380,381,382,383,384,385,386,387,388,389,390,391,392,393,394,395,396,397,398,399,400,401,402,403,404,405,406,407,408,409,410,411,412,413,414,415,416,417,418,419,420,421,422,423,424,425,426,427,428,429,430,431,432,433,434,435,436,437,438,439,440,441,442,443,444,445,446,447,448,449,450,451,452,453,454,455,456,457,458,459,460,461,462,463,464,465,466,467,468,469,470,471,472,473,474,475,476,477,478,479,480,481,482,483,484,485,486,487,488,489,490,491,492,493,494,495,496,497,498,499,500],"tree_info":[0,0,0,0,0,0,0,0,0,0,0,0,0,0,0,0,0,0,0,0,0,0,0,0,0,0,0,0,0,0,0,0,0,0,0,0,0,0,0,0,0,0,0,0,0,0,0,0,0,0,0,0,0,0,0,0,0,0,0,0,0,0,0,0,0,0,0,0,0,0,0,0,0,0,0,0,0,0,0,0,0,0,0,0,0,0,0,0,0,0,0,0,0,0,0,0,0,0,0,0,0,0,0,0,0,0,0,0,0,0,0,0,0,0,0,0,0,0,0,0,0,0,0,0,0,0,0,0,0,0,0,0,0,0,0,0,0,0,0,0,0,0,0,0,0,0,0,0,0,0,0,0,0,0,0,0,0,0,0,0,0,0,0,0,0,0,0,0,0,0,0,0,0,0,0,0,0,0,0,0,0,0,0,0,0,0,0,0,0,0,0,0,0,0,0,0,0,0,0,0,0,0,0,0,0,0,0,0,0,0,0,0,0,0,0,0,0,0,0,0,0,0,0,0,0,0,0,0,0,0,0,0,0,0,0,0,0,0,0,0,0,0,0,0,0,0,0,0,0,0,0,0,0,0,0,0,0,0,0,0,0,0,0,0,0,0,0,0,0,0,0,0,0,0,0,0,0,0,0,0,0,0,0,0,0,0,0,0,0,0,0,0,0,0,0,0,0,0,0,0,0,0,0,0,0,0,0,0,0,0,0,0,0,0,0,0,0,0,0,0,0,0,0,0,0,0,0,0,0,0,0,0,0,0,0,0,0,0,0,0,0,0,0,0,0,0,0,0,0,0,0,0,0,0,0,0,0,0,0,0,0,0,0,0,0,0,0,0,0,0,0,0,0,0,0,0,0,0,0,0,0,0,0,0,0,0,0,0,0,0,0,0,0,0,0,0,0,0,0,0,0,0,0,0,0,0,0,0,0,0,0,0,0,0,0,0,0,0,0,0,0,0,0,0,0,0,0,0,0,0,0,0,0,0,0,0,0,0,0,0,0,0,0,0,0,0,0,0,0,0,0,0,0,0,0,0,0,0,0,0,0,0,0,0,0,0,0,0,0,0,0,0,0,0,0,0,0,0,0,0,0,0,0,0,0,0,0,0,0,0,0,0,0,0,0,0,0,0,0,0],"trees":[{"base_weights":[-4.3535945E-3,-5.6681836E-1,6.157478E-1,-6.1794204E-1,8.7437534E-1,4.8482087E-1,1.3884796E0,-7.8901684E-1,-2.4899559E-1,3.9297843E-1,1.1544527E0,3.6016214E-1,8.469237E-1,1.0782851E0,1.7719238E0,-1.0173906E0,-6.004514E-1,-3.973819E-1,3.4096066E-2,-4.42936E-3,7.485886E-1,8.763287E-1,1.3682861E0,4.7713377E-2,5.159518E-1,5.7594746E-1,1.0616847E0,8.6967903E-1,1.6518993E0,1.6730374E0,2.1609793E0,-1.1217331E0,-7.753444E-1,-7.632551E-1,-4.3683162E-1,-7.245728E-1,-2.71159E-1,-1.036927E-1,3.6611852E-1,2.7942032E-1,-7.7214295E-1,-3.999674E-1,9.7727585E-1,-5.7680365E-2,9.425399E-1,-1.7846163E-1,1.4318749E0,1.566385E-2,8.4453386E-1,3.3358073E-1,6.627487E-1,4.6929026E-1,1.020237E0,8.641449E-1,1.181225E0,7.989258E-1,1.8231145E0,7.642546E-2,1.6994483E0,1.3349137E0,1.7418475E0,1.1461227E-2,2.1865482E0,-6.5331705E-2,-4.8367348E-2,-5.1008582E-2,-3.1344626E-2,-4.2549077E-2,-2.3833923E-2,-2.9330933E-2,-1.3043091E-2,-3.9795164E-2,1.6440824E-2,-1.882036E-2,6.3431374E-4,-1.0279107E-2,1.0285228E-2,-5.4715252E-3,2.7483786E-2,-3.408253E-2,3.007319E-2,-5.4829992E-2,4.6894174E-2,6.389676E-2,-7.226389E-2,-1.828181E-2,5.64042E-2,5.744031E-2,1.083224E-2,-5.5493053E-2,3.691778E-2,5.33404E-2,8.00615E-2,-2.7590739E-3,1.273063E-2,-1.828181E-2,4.730658E-2,1.27163995E-2,2.693216E-2,2.1675173E-2,3.6454093E-2,-8.40306E-3,2.6548235E-2,-3.832699E-2,5.3779542E-2,3.0826425E-2,5.95128E-2,5.7443548E-2,8.943475E-2,3.5569165E-2,7.126208E-2,3.884024E-2,1.0417755E-1,3.7795708E-2,-5.2913226E-2,6.9611035E-2,9.4841495E-2,5.1542412E-2,8.521331E-2,7.753903E-2,9.335836E-2,1.1461227E-2,1.1064327E-1],"categories":[],"categories_nodes":[],"categories_segments":[],"categories_sizes":[],"default_left":[0,0,0,0,0,0,0,0,0,0,0,0,0,0,0,0,0,0,0,0,0,0,0,0,0,0,0,0,0,0,0,0,0,0,0,0,0,0,0,0,0,0,0,0,0,0,0,0,0,0,0,0,0,0,0,0,0,0,0,0,0,0,0,0,0,0,0,0,0,0,0,0,0,0,0,0,0,0,0,0,0,0,0,0,0,0,0,0,0,0,0,0,0,0,0,0,0,0,0,0,0,0,0,0,0,0,0,0,0,0,0,0,0,0,0,0,0,0,0,0,0,0,0],"id":0,"left_children":[1,3,5,7,9,11,13,15,17,19,21,23,25,27,29,31,33,35,37,39,41,43,45,47,49,51,53,55,57,59,61,63,65,67,69,71,73,75,77,79,81,83,85,-1,87,89,91,93,95,97,99,101,103,105,107,109,111,113,115,117,119,-1,121,-1,-1,-1,-1,-1,-1,-1,-1,-1,-1,-1,-1,-1,-1,-1,-1,-1,-1,-1,-1,-1,-1,-1,-1,-1,-1,-1,-1,-1,-1,-1,-1,-1,-1,-1,-1,-1,-1,-1,-1,-1,-1,-1,-1,-1,-1,-1,-1,-1,-1,-1,-1,-1,-1,-1,-1,-1,-1,-1,-1],"loss_changes":[5.8994683E3,6.5402637E2,8.132483E2,5.404734E2,4.0569138E1,3.1029468E2,1.366648E2,2.5139429E2,1.140681E2,1.6032879E1,1.0209763E1,2.4922058E2,1.0189636E2,7.5935486E1,1.6369507E1,6.593628E1,8.5115234E1,7.337659E1,4.2797836E1,1.2104984E1,1.6115452E1,1.2668083E1,1.0747177E1,4.352231E1,9.124945E1,3.6529327E1,2.2155518E1,3.0672394E1,1.2704651E1,7.4144287E0,4.529236E0,5.143579E1,2.8438019E1,3.9983826E1,4.207831E1,3.748053E1,3.8457016E1,2.0889929E1,2.400774E1,1.2965459E1,9.346982E0,2.0526781E1,1.058239E1,0E0,1.2327095E1,5.1756434E0,4.6332245E0,2.7774195E1,8.448139E0,2.4659012E1,2.8454224E1,2.4918106E1,1.569368E1,2.9445953E1,9.908936E0,2.3393524E1,7.1346664E0,5.4771976E0,7.4413757E0,6.6735992E0,5.35437E0,0E0,4.664337E0,0E0,0E0,0E0,0E0,0E0,0E0,0E0,0E0,0E0,0E0,0E0,0E0,0E0,0E0,0E0,0E0,0E0,0E0,0E0,0E0,0E0,0E0,0E0,0E0,0E0,0E0,0E0,0E0,0E0,0E0,0E0,0E0,0E0,0E0,0E0,0E0,0E0,0E0,0E0,0E0,0E0,0E0,0E0,0E0,0E0,0E0,0E0,0E0,0E0,0E0,0E0,0E0,0E0,0E0,0E0,0E0,0E0,0E0,0E0,0E0],"parents":[2147483647,0,0,1,1,2,2,3,3,4,4,5,5,6,6,7,7,8,8,9,9,10,10,11,11,12,12,13,13,14,14,15,15,16,16,17,17,18,18,19,19,20,20,21,21,22,22,23,23,24,24,25,25,26,26,27,27,28,28,29,29,30,30,31,31,32,32,33,33,34,34,35,35,36,36,37,37,38,38,39,39,40,40,41,41,42,42,44,44,45,45,46,46,47,47,48,48,49,49,50,50,51,51,52,52,53,53,54,54,55,55,56,56,57,57,58,58,59,59,60,60,62,62],"right_children":[2,4,6,8,10,12,14,16,18,20,22,24,26,28,30,32,34,36,38,40,42,44,46,48,50,52,54,56,58,60,62,64,66,68,70,72,74,76,78,80,82,84,86,-1,88,90,92,94,96,98,100,102,104,106,108,110,112,114,116,118,120,-1,122,-1,-1,-1,-1,-1,-1,-1,-1,-1,-1,-1,-1,-1,-1,-1,-1,-1,-1,-1,-1,-1,-1,-1,-1,-1,-1,-1,-1,-1,-1,-1,-1,-1,-1,-1,-1,-1,-1,-1,-1,-1,-1,-1,-1,-1,-1,-1,-1,-1,-1,-1,-1,-1,-1,-1,-1,-1,-1,-1,-1],"split_conditions":[3.16E1,8.95092E0,8.524E1,1.13E0,2.5253052E1,1.66E0,1.566E0,4.459E1,4.927E1,5.2666656E2,2.2E-1,6.308E1,9.16E-1,1.8863462E1,2.9E0,5.1930575E0,5.22E-1,1.134E1,2.87E0,5.229801E2,2.713E1,6.19E0,2.53E1,1.414E0,9.78E-1,7.444E1,6.837E1,1.125E2,4.096E1,1.72E0,8.677E1,1.359E1,1.102E1,3.3072503E0,2.433E1,4.43E0,2.93E0,3.7546768E0,3.482802E0,2E0,2.96E0,2.585E1,1E0,-5.7680365E-2,8.81E-1,2.065E1,2.97E-1,4.92E-1,4.188E1,5.5E-1,1.82E2,2.613E1,2.561E1,2.87E0,7.542657E0,3.04E0,9.2E1,3.058E1,1.2E0,1.15E0,3.9492197E0,1.1461227E-2,4.644873E2,-6.5331705E-2,-4.8367348E-2,-5.1008582E-2,-3.1344626E-2,-4.2549077E-2,-2.3833923E-2,-2.9330933E-2,-1.3043091E-2,-3.9795164E-2,1.6440824E-2,-1.882036E-2,6.3431374E-4,-1.0279107E-2,1.0285228E-2,-5.4715252E-3,2.7483786E-2,-3.408253E-2,3.007319E-2,-5.4829992E-2,4.6894174E-2,6.389676E-2,-7.226389E-2,-1.828181E-2,5.64042E-2,5.744031E-2,1.083224E-2,-5.5493053E-2,3.691778E-2,5.33404E-2,8.00615E-2,-2.7590739E-3,1.273063E-2,-1.828181E-2,4.730658E-2,1.27163995E-2,2.693216E-2,2.1675173E-2,3.6454093E-2,-8.40306E-3,2.6548235E-2,-3.832699E-2,5.3779542E-2,3.0826425E-2,5.95128E-2,5.7443548E-2,8.943475E-2,3.5569165E-2,7.126208E-2,3.884024E-2,1.0417755E-1,3.7795708E-2,-5.2913226E-2,6.9611035E-2,9.4841495E-2,5.1542412E-2,8.521331E-2,7.753903E-2,9.335836E-2,1.1461227E-2,1.1064327E-1],"split_indices":[1,10,4,5,9,5,3,4,4,8,5,4,3,9,5,9,3,1,5,8,0,1,0,3,3,4,4,1,1,3,4,1,1,10,1,5,5,10,9,13,5,0,13,0,3,1,2,2,1,5,14,0,0,5,10,5,4,0,5,5,9,0,8,0,0,0,0,0,0,0,0,0,0,0,0,0,0,0,0,0,0,0,0,0,0,0,0,0,0,0,0,0,0,0,0,0,0,0,0,0,0,0,0,0,0,0,0,0,0,0,0,0,0,0,0,0,0,0,0,0,0,0,0],"split_type":[0,0,0,0,0,0,0,0,0,0,0,0,0,0,0,0,0,0,0,0,0,0,0,0,0,0,0,0,0,0,0,0,0,0,0,0,0,0,0,0,0,0,0,0,0,0,0,0,0,0,0,0,0,0,0,0,0,0,0,0,0,0,0,0,0,0,0,0,0,0,0,0,0,0,0,0,0,0,0,0,0,0,0,0,0,0,0,0,0,0,0,0,0,0,0,0,0,0,0,0,0,0,0,0,0,0,0,0,0,0,0,0,0,0,0,0,0,0,0,0,0,0,0],"sum_hessian":[1.691233E4,8.868353E3,8.0439785E3,8.565093E3,3.0325958E2,6.8799155E3,1.1640632E3,5.8509556E3,2.714137E3,1.1242559E2,1.90834E2,5.119466E3,1.7604496E3,6.456027E2,5.184605E2,2.6441726E3,3.2067832E3,1.7804739E3,9.3366315E2,5.355897E1,5.886662E1,8.516359E1,1.056704E2,1.7037543E3,3.4157114E3,7.7998267E2,9.804669E2,4.7527557E2,1.7032718E2,4.1761523E2,1.00845276E2,1.8451306E3,7.9904193E2,1.6055629E3,1.6012202E3,4.9433484E2,1.286139E3,6.603194E2,2.7334375E2,3.9566086E1,1.3992885E1,9.650265E0,4.9216354E1,2.1713097E0,8.299228E1,4.1013627E0,1.0156904E2,1.6388563E3,6.489803E1,1.524742E3,1.8909695E3,6.3064484E2,1.4933786E2,3.727415E2,6.0772546E2,4.4415344E2,3.1122107E1,5.066389E0,1.6526079E2,7.406579E1,3.4354944E2,1.4475398E0,9.9397736E1,8.3619543E2,1.0089352E3,2.9939948E2,4.996425E2,1.227755E3,3.778079E2,8.636987E2,7.375215E2,4.6321274E2,3.1122105E1,9.380058E2,3.481333E2,4.9698865E2,1.6333073E2,7.623709E1,1.9710666E2,9.650265E0,2.9915823E1,1.2062831E1,1.930053E0,3.6188495E0,6.0314155E0,4.8251324E0,4.439122E1,6.417426E1,1.8818018E1,1.930053E0,2.1713097E0,3.44997E1,6.706934E1,1.2646672E3,3.7418903E2,4.8251324E0,6.0072903E1,1.1013365E3,4.234054E2,4.260592E2,1.4649103E3,5.5489025E1,5.751558E2,4.1013627E0,1.452365E2,2.1351212E2,1.5922937E2,5.797397E2,2.798577E1,3.915595E2,5.2593945E1,6.9964423E0,2.4125664E1,3.3775928E0,1.6887964E0,6.779311E1,9.746768E1,4.2702423E1,3.1363361E1,1.4137639E2,2.0217307E2,1.4475398E0,9.7950195E1],"tree_param":{"num_deleted":"0","num_feature":"15","num_nodes":"123","size_leaf_vector":"1"}},{"base_weights":[-1.3619402E-2,-4.9535134E-1,6.2676275E-1,-6.2105674E-1,2.8413612E-2,4.8064113E-1,1.1441087E0,-7.892349E-1,-2.2407925E-1,-7.345343E-2,5.938013E-1,2.0759687E-1,6.077954E-1,9.472983E-1,1.670725E0,-9.6603084E-1,-6.107265E-1,-3.815771E-1,8.424572E-2,-1.9574863E-1,1.1493385E-1,8.221354E-2,7.227601E-1,3.1793162E-2,5.6479275E-1,5.153196E-1,8.734362E-1,6.9753987E-1,1.4384401E0,1.5277547E0,1.9327644E0,-1.0706801E0,-7.0085454E-1,-6.824284E-1,-3.0295745E-1,-4.2794624E-1,3.0553302E-1,-8.366255E-2,4.2678288E-1,-2.3451722E-1,2.6806682E-1,-1.330265E-2,4.2320573E-1,-6.763672E-2,2.1561025E-1,7.540721E-2,8.3532184E-1,-2.5855625E-1,1.7241795E-1,3.697002E-1,7.0921475E-1,3.0187985E-1,5.831775E-1,6.8158615E-1,1.001111E0,5.6852645E-1,1.0637882E0,1.1878752E0,1.7026757E0,1.1807345E0,1.623938E0,1.1856713E0,9.856828E-2,-6.2491763E-2,-4.605442E-2,-3.843167E-2,-2.0363682E-3,-4.41194E-2,-2.6374293E-2,-2.0180203E-2,4.26679E-3,-2.6584432E-2,-7.073346E-3,3.6767665E-3,5.8290154E-2,-1.10503845E-2,1.0038317E-2,1.53293805E-2,5.7353873E-2,-2.8092086E-2,-9.421494E-3,1.7736537E-2,-6.4219095E-2,-1.3194022E-2,6.1789933E-3,5.0550764E-3,3.050513E-2,-1.5841933E-2,2.6586836E-2,-3.45136E-2,3.6518004E-2,-6.1151307E-2,4.3520883E-2,-1.719786E-2,2.4871377E-2,1.2888918E-2,-5.2345186E-3,6.100667E-3,3.5512708E-2,3.0406421E-2,6.430663E-2,1.0105845E-2,5.4277997E-2,2.6556319E-2,4.0088084E-2,1.9302927E-2,4.137311E-2,4.293411E-2,5.840072E-2,-1.2616323E-3,3.1044845E-2,3.2224208E-2,6.2630504E-2,4.9664307E-2,6.9181405E-2,1.2975073E-3,8.5894816E-2,3.2882262E-2,7.293359E-2,8.183515E-2,2.7125103E-5,8.506652E-2,-5.1871955E-2],"categories":[],"categories_nodes":[],"categories_segments":[],"categories_sizes":[],"default_left":[0,0,0,0,0,0,0,0,0,0,0,0,0,0,0,0,0,0,0,0,0,0,0,0,0,0,0,0,0,0,0,0,0,0,0,0,0,0,0,0,0,0,0,0,0,0,0,0,0,0,0,0,0,0,0,0,0,0,0,0,0,0,0,0,0,0,0,0,0,0,0,0,0,0,0,0,0,0,0,0,0,0,0,0,0,0,0,0,0,0,0,0,0,0,0,0,0,0,0,0,0,0,0,0,0,0,0,0,0,0,0,0,0,0,0,0,0,0,0,0,0,0,0],"id":1,"left_children":[1,3,5,7,9,11,13,15,17,19,21,23,25,27,29,31,33,35,37,39,41,43,45,47,49,51,53,55,57,59,61,63,65,67,69,71,73,75,77,79,81,83,85,-1,87,89,91,93,95,97,99,101,103,105,107,109,111,113,115,117,119,121,-1,-1,-1,-1,-1,-1,-1,-1,-1,-1,-1,-1,-1,-1,-1,-1,-1,-1,-1,-1,-1,-1,-1,-1,-1,-1,-1,-1,-1,-1,-1,-1,-1,-1,-1,-1,-1,-1,-1,-1,-1,-1,-1,-1,-1,-1,-1,-1,-1,-1,-1,-1,-1,-1,-1,-1,-1,-1,-1,-1,-1],"loss_changes":[5.192879E3,6.3251025E2,5.457461E2,5.170488E2,1.0718641E2,1.9557397E2,1.6329858E2,1.7113794E2,1.1205132E2,3.6359043E1,1.8684662E1,1.1254222E2,9.401013E1,1.4133496E2,1.3212402E1,7.506665E1,5.9603394E1,4.8783127E1,4.4941105E1,1.7266129E1,2.457316E1,1.1456653E1,1.646228E1,4.9134884E1,1.6394226E1,4.11709E1,2.3604248E1,3.583258E1,2.381311E1,7.5598755E0,1.9464111E0,5.1299316E1,3.468875E1,6.7614685E1,2.0118542E1,4.24516E1,1.9297453E1,2.0544502E1,2.1897614E1,1.3221504E1,1.044755E1,1.51197195E1,1.0931053E1,0E0,9.29643E0,1.7901516E1,1.5013611E1,2.552479E1,1.9200865E1,2.1301048E1,1.8964905E1,5.3783276E1,2.4206726E1,1.6895401E1,1.3098389E1,1.7815125E1,1.5006256E1,6.3809814E0,4.7437134E0,8.532181E0,4.5509644E0,1.3007528E1,0E0,0E0,0E0,0E0,0E0,0E0,0E0,0E0,0E0,0E0,0E0,0E0,0E0,0E0,0E0,0E0,0E0,0E0,0E0,0E0,0E0,0E0,0E0,0E0,0E0,0E0,0E0,0E0,0E0,0E0,0E0,0E0,0E0,0E0,0E0,0E0,0E0,0E0,0E0,0E0,0E0,0E0,0E0,0E0,0E0,0E0,0E0,0E0,0E0,0E0,0E0,0E0,0E0,0E0,0E0,0E0,0E0,0E0,0E0,0E0,0E0],"parents":[2147483647,0,0,1,1,2,2,3,3,4,4,5,5,6,6,7,7,8,8,9,9,10,10,11,11,12,12,13,13,14,14,15,15,16,16,17,17,18,18,19,19,20,20,21,21,22,22,23,23,24,24,25,25,26,26,27,27,28,28,29,29,30,30,31,31,32,32,33,33,34,34,35,35,36,36,37,37,38,38,39,39,40,40,41,41,42,42,44,44,45,45,46,46,47,47,48,48,49,49,50,50,51,51,52,52,53,53,54,54,55,55,56,56,57,57,58,58,59,59,60,60,61,61],"right_children":[2,4,6,8,10,12,14,16,18,20,22,24,26,28,30,32,34,36,38,40,42,44,46,48,50,52,54,56,58,60,62,64,66,68,70,72,74,76,78,80,82,84,86,-1,88,90,92,94,96,98,100,102,104,106,108,110,112,114,116,118,120,122,-1,-1,-1,-1,-1,-1,-1,-1,-1,-1,-1,-1,-1,-1,-1,-1,-1,-1,-1,-1,-1,-1,-1,-1,-1,-1,-1,-1,-1,-1,-1,-1,-1,-1,-1,-1,-1,-1,-1,-1,-1,-1,-1,-1,-1,-1,-1,-1,-1,-1,-1,-1,-1,-1,-1,-1,-1,-1,-1,-1,-1],"split_conditions":[5.972E1,2.917E1,8.212E1,1.26E0,2.32E0,6.579E1,1.125E2,4.49E1,4.841E1,1.8470566E0,2.713E1,1.16E0,1.69E0,1.4941085E1,1.81E0,2.2344646E0,3.7546768E0,4.43E0,3.3072503E0,5.552E1,8E-1,2.947E1,1.0309794E0,4.002E1,4.419E1,1.82E2,7.2E1,1.66E0,1.43E0,1.3316E2,2.213361E0,1.339E1,5.0814886E0,2.034E1,2.464E1,2.4802525E0,3.35E2,1.52E2,3.78E0,1E0,4.8000355E0,5.090092E2,3.629E1,-6.763672E-2,1.4665799E0,2.2906517E2,2.931E1,9.619942E0,3.249E1,8.707527E0,3.83E0,2.3208014E1,7.228E1,3.6663406E0,2.58931E0,4.7108337E2,1.7700409E0,1.6661421E6,4.8701538E2,1.664021E6,1.75E0,5E0,9.856828E-2,-6.2491763E-2,-4.605442E-2,-3.843167E-2,-2.0363682E-3,-4.41194E-2,-2.6374293E-2,-2.0180203E-2,4.26679E-3,-2.6584432E-2,-7.073346E-3,3.6767665E-3,5.8290154E-2,-1.10503845E-2,1.0038317E-2,1.53293805E-2,5.7353873E-2,-2.8092086E-2,-9.421494E-3,1.7736537E-2,-6.4219095E-2,-1.3194022E-2,6.1789933E-3,5.0550764E-3,3.050513E-2,-1.5841933E-2,2.6586836E-2,-3.45136E-2,3.6518004E-2,-6.1151307E-2,4.3520883E-2,-1.719786E-2,2.4871377E-2,1.2888918E-2,-5.2345186E-3,6.100667E-3,3.5512708E-2,3.0406421E-2,6.430663E-2,1.0105845E-2,5.4277997E-2,2.6556319E-2,4.0088084E-2,1.9302927E-2,4.137311E-2,4.293411E-2,5.840072E-2,-1.2616323E-3,3.1044845E-2,3.2224208E-2,6.2630504E-2,4.9664307E-2,6.9181405E-2,1.2975073E-3,8.5894816E-2,3.2882262E-2,7.293359E-2,8.183515E-2,2.7125103E-5,8.506652E-2,-5.1871955E-2],"split_indices":[4,1,4,5,5,4,1,4,4,10,0,5,5,9,5,10,10,5,10,1,5,1,10,1,1,14,4,5,5,1,9,1,10,1,1,10,14,14,5,13,9,8,1,0,10,11,1,10,0,9,5,9,1,9,10,8,10,6,8,6,5,13,0,0,0,0,0,0,0,0,0,0,0,0,0,0,0,0,0,0,0,0,0,0,0,0,0,0,0,0,0,0,0,0,0,0,0,0,0,0,0,0,0,0,0,0,0,0,0,0,0,0,0,0,0,0,0,0,0,0,0,0,0],"split_type":[0,0,0,0,0,0,0,0,0,0,0,0,0,0,0,0,0,0,0,0,0,0,0,0,0,0,0,0,0,0,0,0,0,0,0,0,0,0,0,0,0,0,0,0,0,0,0,0,0,0,0,0,0,0,0,0,0,0,0,0,0,0,0,0,0,0,0,0,0,0,0,0,0,0,0,0,0,0,0,0,0,0,0,0,0,0,0,0,0,0,0,0,0,0,0,0,0,0,0,0,0,0,0,0,0,0,0,0,0,0,0,0,0,0,0,0,0,0,0,0,0,0,0],"sum_hessian":[1.6831072E4,9.605496E3,7.225575E3,7.746197E3,1.8592997E3,5.635724E3,1.5898512E3,5.4404014E3,2.3057952E3,1.5761853E3,2.8311438E2,1.7914636E3,3.8442603E3,1.159365E3,4.3048624E2,2.7310945E3,2.7093071E3,1.526033E3,7.7976227E2,9.5572144E2,6.2046387E2,5.7327988E1,2.2578639E2,1.2013E3,5.9016364E2,2.8537444E3,9.905159E2,7.7014594E2,3.8921906E2,2.829417E2,1.4754453E2,1.9561003E3,7.749941E2,2.1963894E3,5.129176E2,1.4299135E3,9.611953E1,5.237708E2,2.5599142E2,8.824547E2,7.3266716E1,4.3886105E2,1.8160278E2,4.0986066E0,5.322938E1,3.3691788E1,1.920946E2,3.9170474E2,8.095953E2,2.5255685E2,3.3760675E2,6.8972815E2,2.164016E3,3.9832022E2,5.921957E2,5.714138E2,1.987321E2,2.0259813E2,1.8662094E2,6.428468E1,2.1865701E2,8.807068E0,1.3873746E2,8.8674976E2,1.0693506E3,7.026816E2,7.2312515E1,9.5684656E2,1.2395428E3,4.07304E2,1.05613655E2,1.0491355E3,3.8077795E2,7.655866E1,1.9560867E1,3.5336215E2,1.7040869E2,2.2060483E2,3.5386597E1,1.075334E2,7.7492126E2,7.0123634E1,3.1430814E0,1.5471367E2,2.841474E2,6.724738E1,1.1435541E2,1.9829123E1,3.3400257E1,1.5508038E1,1.8183752E1,2.6529443E0,1.8944165E2,3.5243622E2,3.9268505E1,6.1899115E2,1.9060416E2,1.4700069E2,1.05556175E2,2.8901947E2,4.8587276E1,6.1295636E2,7.677182E1,1.750582E3,4.1343408E2,1.3284285E2,2.654774E2,3.2284067E2,2.69355E2,4.6356564E1,5.2505725E2,6.3076206E1,1.356559E2,1.04647224E2,9.7950905E1,1.7031643E0,1.8491777E2,2.3473246E1,4.081144E1,2.1694296E2,1.7140611E0,7.339378E0,1.46769E0],"tree_param":{"num_deleted":"0","num_feature":"15","num_nodes":"123","size_leaf_vector":"1"}},{"base_weights":[6.0666283E-3,-4.69745E-1,5.844825E-1,-6.7698187E-1,-2.1479866E-1,3.980427E-1,1.0036714E0,-8.5840803E-1,-5.015665E-1,-4.1733828E-1,-2.571826E-2,4.3653097E-2,5.101192E-1,8.303492E-1,1.4827055E0,-9.3559295E-1,-5.393239E-1,-6.0996026E-1,-2.8712866E-1,-5.01095E-1,-1.10607944E-1,-2.8539804E-1,1.3645518E-1,-1.8692166E-2,8.713369E-1,2.8779003E-1,5.820123E-1,6.952586E-1,1.2345266E0,1.2724026E0,1.6628743E0,-1.0942183E0,-8.084474E-1,-1.0846202E0,-4.5222998E-1,-6.868585E-1,-3.2949528E-1,-4.6153116E-1,-9.865685E-2,-5.754994E-1,-2.7244028E-1,2.7797885E-2,-3.8399097E-1,-5.4813427E-1,-1.809194E-1,6.9689356E-2,3.7214372E-1,-3.7620842E-1,7.5606525E-2,1.2693601E0,1.8113218E-1,2.4150154E-1,8.56981E-1,4.363257E-1,6.924028E-1,6.148854E-1,8.981712E-1,1.0718502E0,1.3980693E0,1.1295528E0,1.6859577E0,6.1873394E-1,1.6799653E0,-6.1653253E-2,-4.9431797E-2,-4.6648204E-2,-3.355856E-2,-6.337528E-2,-2.0628136E-2,-2.546303E-2,1.6351527E-2,-3.6077634E-2,-1.2962326E-2,-1.9474214E-2,3.411276E-2,-3.0516548E-2,-7.199286E-3,-8.167896E-3,2.7531186E-2,-3.511252E-2,-2.1351187E-2,-3.5094537E-2,-8.815613E-3,-5.0274255E-3,1.4421924E-2,-3.6742967E-2,-8.090603E-3,-2.3466358E-2,-7.1454205E-2,-1.2266795E-2,1.6844263E-2,-2.297865E-2,5.624495E-3,6.0756456E-2,1.6266046E-2,-3.7030842E-2,-1.1947407E-2,2.8541824E-4,1.7926764E-2,7.002782E-2,8.4521575E-3,-3.4265995E-2,2.6863629E-2,-8.8699255E-4,1.8368794E-2,-5.5152248E-3,4.8456296E-2,1.7888507E-2,3.205965E-2,-1.3495487E-3,3.5347648E-2,-3.5157334E-2,3.1250563E-2,-3.7551057E-2,4.7281962E-2,5.6858074E-2,2.3354287E-3,-1.8246144E-2,7.102001E-2,3.8232688E-2,6.762095E-2,8.726018E-2,5.0098505E-2,-4.9839057E-2,5.7205833E-2,4.797129E-2,8.479728E-2],"categories":[],"categories_nodes":[],"categories_segments":[],"categories_sizes":[],"default_left":[0,0,0,0,0,0,0,0,0,0,0,0,0,0,0,0,0,0,0,0,0,0,0,0,0,0,0,0,0,0,0,0,0,0,0,0,0,0,0,0,0,0,0,0,0,0,0,0,0,0,0,0,0,0,0,0,0,0,0,0,0,0,0,0,0,0,0,0,0,0,0,0,0,0,0,0,0,0,0,0,0,0,0,0,0,0,0,0,0,0,0,0,0,0,0,0,0,0,0,0,0,0,0,0,0,0,0,0,0,0,0,0,0,0,0,0,0,0,0,0,0,0,0,0,0,0,0],"id":2,"left_children":[1,3,5,7,9,11,13,15,17,19,21,23,25,27,29,31,33,35,37,39,41,43,45,47,49,51,53,55,57,59,61,63,65,67,69,71,73,75,77,79,81,83,85,87,89,91,93,95,97,99,101,103,105,107,109,111,113,115,117,119,121,123,125,-1,-1,-1,-1,-1,-1,-1,-1,-1,-1,-1,-1,-1,-1,-1,-1,-1,-1,-1,-1,-1,-1,-1,-1,-1,-1,-1,-1,-1,-1,-1,-1,-1,-1,-1,-1,-1,-1,-1,-1,-1,-1,-1,-1,-1,-1,-1,-1,-1,-1,-1,-1,-1,-1,-1,-1,-1,-1,-1,-1,-1,-1,-1,-1],"loss_changes":[4.652315E3,4.8987695E2,5.958701E2,1.6237256E2,1.5930634E2,2.097893E2,1.9371997E2,6.1394287E1,6.033484E1,5.1544556E1,9.069229E1,6.5565926E1,6.3978394E1,9.340784E1,2.1473389E1,3.9904175E1,2.287082E1,3.7048706E1,2.8747429E1,2.6679626E1,1.636015E1,2.2625702E1,2.083612E1,3.9887215E1,2.4220718E1,2.568129E1,4.8452515E1,2.0588196E1,9.973511E0,1.5317535E1,4.8860474E0,1.1930542E1,1.8627869E1,7.7157364E0,1.9092918E1,1.9922546E1,2.2954609E1,2.139666E1,1.7829296E1,2.2080963E1,1.5942106E1,9.656424E0,1.1207872E1,1.5647354E1,1.988925E1,2.3482122E1,1.1147049E1,1.2173832E1,1.8515642E1,7.8881607E0,1.0773341E1,2.9704205E1,8.080479E0,2.0845871E1,1.805426E1,1.2873596E1,2.9330994E1,1.4707428E1,8.854492E0,1.683319E1,1.2020416E0,7.02289E0,2.1279907E0,0E0,0E0,0E0,0E0,0E0,0E0,0E0,0E0,0E0,0E0,0E0,0E0,0E0,0E0,0E0,0E0,0E0,0E0,0E0,0E0,0E0,0E0,0E0,0E0,0E0,0E0,0E0,0E0,0E0,0E0,0E0,0E0,0E0,0E0,0E0,0E0,0E0,0E0,0E0,0E0,0E0,0E0,0E0,0E0,0E0,0E0,0E0,0E0,0E0,0E0,0E0,0E0,0E0,0E0,0E0,0E0,0E0,0E0,0E0,0E0,0E0,0E0,0E0,0E0],"parents":[2147483647,0,0,1,1,2,2,3,3,4,4,5,5,6,6,7,7,8,8,9,9,10,10,11,11,12,12,13,13,14,14,15,15,16,16,17,17,18,18,19,19,20,20,21,21,22,22,23,23,24,24,25,25,26,26,27,27,28,28,29,29,30,30,31,31,32,32,33,33,34,34,35,35,36,36,37,37,38,38,39,39,40,40,41,41,42,42,43,43,44,44,45,45,46,46,47,47,48,48,49,49,50,50,51,51,52,52,53,53,54,54,55,55,56,56,57,57,58,58,59,59,60,60,61,61,62,62],"right_children":[2,4,6,8,10,12,14,16,18,20,22,24,26,28,30,32,34,36,38,40,42,44,46,48,50,52,54,56,58,60,62,64,66,68,70,72,74,76,78,80,82,84,86,88,90,92,94,96,98,100,102,104,106,108,110,112,114,116,118,120,122,124,126,-1,-1,-1,-1,-1,-1,-1,-1,-1,-1,-1,-1,-1,-1,-1,-1,-1,-1,-1,-1,-1,-1,-1,-1,-1,-1,-1,-1,-1,-1,-1,-1,-1,-1,-1,-1,-1,-1,-1,-1,-1,-1,-1,-1,-1,-1,-1,-1,-1,-1,-1,-1,-1,-1,-1,-1,-1,-1,-1,-1,-1,-1,-1,-1],"split_conditions":[5.868E1,4.755E1,7.799E1,4.53E-1,6E0,6.66E-1,1.566E0,2.6852417E0,1.53E2,3.6910007E0,5.84E-1,9.619942E0,7E0,1.4941085E1,1.95E0,2.7E-1,2.6E-2,7.495039E0,3.03E-1,5.436E1,3.143E1,1.4080695E0,4.62E-1,6E0,1.9201277E2,8.95092E0,9.78E-1,1.282E0,1.6661421E6,1.4589284E1,1.6374774E0,1.4080695E0,2.67E-1,4.559E1,3.41E-1,1.017E0,2.731631E2,6.1518846E0,1.075E0,5.41E-1,2.687E1,5.475E1,2.99E-1,5.769E1,4.42E-1,9.8676605E1,6.12E-1,4.3952684E0,7.112E1,6.12E-1,2.874E1,4.99E-1,2.609E1,7.139E1,5.93E1,3.09E-1,2.545E1,3.412E1,3.5076141E0,7.1E-1,5.716803E2,4.6802206E2,6.61E-1,-6.1653253E-2,-4.9431797E-2,-4.6648204E-2,-3.355856E-2,-6.337528E-2,-2.0628136E-2,-2.546303E-2,1.6351527E-2,-3.6077634E-2,-1.2962326E-2,-1.9474214E-2,3.411276E-2,-3.0516548E-2,-7.199286E-3,-8.167896E-3,2.7531186E-2,-3.511252E-2,-2.1351187E-2,-3.5094537E-2,-8.815613E-3,-5.0274255E-3,1.4421924E-2,-3.6742967E-2,-8.090603E-3,-2.3466358E-2,-7.1454205E-2,-1.2266795E-2,1.6844263E-2,-2.297865E-2,5.624495E-3,6.0756456E-2,1.6266046E-2,-3.7030842E-2,-1.1947407E-2,2.8541824E-4,1.7926764E-2,7.002782E-2,8.4521575E-3,-3.4265995E-2,2.6863629E-2,-8.8699255E-4,1.8368794E-2,-5.5152248E-3,4.8456296E-2,1.7888507E-2,3.205965E-2,-1.3495487E-3,3.5347648E-2,-3.5157334E-2,3.1250563E-2,-3.7551057E-2,4.7281962E-2,5.6858074E-2,2.3354287E-3,-1.8246144E-2,7.102001E-2,3.8232688E-2,6.762095E-2,8.726018E-2,5.0098505E-2,-4.9839057E-2,5.7205833E-2,4.797129E-2,8.479728E-2],"split_indices":[4,4,4,3,12,3,3,10,14,10,3,10,12,9,3,2,3,9,2,4,0,10,2,12,11,10,3,3,6,9,9,10,3,4,2,3,11,9,3,3,0,4,2,4,2,11,3,9,4,3,0,2,0,4,4,3,0,0,10,2,8,8,2,0,0,0,0,0,0,0,0,0,0,0,0,0,0,0,0,0,0,0,0,0,0,0,0,0,0,0,0,0,0,0,0,0,0,0,0,0,0,0,0,0,0,0,0,0,0,0,0,0,0,0,0,0,0,0,0,0,0,0,0,0,0,0,0],"split_type":[0,0,0,0,0,0,0,0,0,0,0,0,0,0,0,0,0,0,0,0,0,0,0,0,0,0,0,0,0,0,0,0,0,0,0,0,0,0,0,0,0,0,0,0,0,0,0,0,0,0,0,0,0,0,0,0,0,0,0,0,0,0,0,0,0,0,0,0,0,0,0,0,0,0,0,0,0,0,0,0,0,0,0,0,0,0,0,0,0,0,0,0,0,0,0,0,0,0,0,0,0,0,0,0,0,0,0,0,0,0,0,0,0,0,0,0,0,0,0,0,0,0,0,0,0,0,0],"sum_hessian":[1.6902172E4,9.273704E3,7.6284688E3,5.1145845E3,4.159119E3,5.2814316E3,2.347037E3,2.5123018E3,2.6022825E3,2.0075063E3,2.151613E3,1.2692886E3,4.012143E3,1.7254681E3,6.215689E2,2.021402E3,4.9089984E2,1.7273164E3,8.74966E2,1.5764127E3,4.3109366E2,8.2685455E2,1.3247584E3,1.1812856E3,8.80029E1,9.815884E2,3.0305547E3,1.2952646E3,4.3020352E2,2.905203E2,3.3104858E2,8.959807E2,1.1254213E3,6.603027E1,4.2486957E2,1.3544915E3,3.7282492E2,4.5369257E2,4.2127344E2,1.1882413E3,3.8817136E2,2.8679572E2,1.4429796E2,2.3404549E2,5.928091E2,1.0333319E3,2.9142645E2,2.459232E2,9.353624E2,5.528333E1,3.2719574E1,9.09083E2,7.2505356E1,1.3085554E3,1.7219994E3,9.3066174E2,3.6460287E2,2.1945987E2,2.1074365E2,2.1870625E2,7.181403E1,5.930616E0,3.2511798E2,3.8241055E2,5.135701E2,5.8709735E2,5.38324E2,5.1208908E1,1.4821362E1,3.9621857E2,2.8651016E1,1.2522064E3,1.0228504E2,3.5253723E2,2.0287691E1,3.0830212E2,1.4539046E2,3.837782E2,3.749526E1,6.390049E2,5.4923645E2,6.984379E1,3.1832758E2,1.9257892E2,9.421679E1,5.5051796E1,8.9246155E1,2.1623454E2,1.7810938E1,5.2768915E2,6.5119965E1,7.658317E1,9.567488E2,1.4022241E1,2.774042E2,6.608372E1,1.7983948E2,7.508769E2,1.8448558E2,4.915006E1,6.133269E0,9.261943E0,2.345763E1,2.9741284E2,6.1167017E2,7.5344844E0,6.497087E1,9.478518E2,3.6070367E2,3.4121037E1,1.6878783E3,6.5735445E0,9.240882E2,9.785943E0,3.5481693E2,2.0621286E2,1.3246999E1,2.444087E0,2.0829956E2,8.4608154E1,1.340981E2,6.466164E1,7.152398E0,1.2352036E0,4.695412E0,8.378413E0,3.1673956E2],"tree_param":{"num_deleted":"0","num_feature":"15","num_nodes":"127","size_leaf_vector":"1"}},{"base_weights":[-1.3336626E-2,-4.2405155E-1,6.010606E-1,-5.6289035E-1,7.3583126E-2,4.9092594E-1,1.1291202E0,-7.2127986E-1,-2.2426887E-1,-6.018091E-2,4.8847184E-1,3.985218E-1,8.9889675E-1,8.8528305E-1,1.4490831E0,-8.8246167E-1,-5.252909E-1,-3.8075754E-1,2.2186648E-2,-1.7064205E-1,9.695081E-2,2.9889822E-1,7.644389E-1,2.4147223E-1,5.502154E-1,7.067242E-1,1.0488797E0,6.2929046E-1,1.2756425E0,1.300536E0,1.6512903E0,-9.9107695E-1,-6.6600716E-1,-6.1337465E-1,-2.4225037E-1,-4.2947987E-1,4.0669197E-1,-1.274602E-1,3.3314773E-1,-2.6540297E-1,1.172554E-1,-1.613997E-1,2.3982835E-1,1.0147013E-1,4.9426645E-1,6.089927E-1,1.1627475E0,1.9623472E-1,8.491955E-1,4.744027E-1,7.592491E-1,5.4617E-1,1.125046E0,9.794103E-1,1.479997E0,-9.2391235E-1,6.6447634E-1,9.6790576E-1,1.5226226E0,8.8843703E-1,1.3852355E0,6.2995577E-1,1.6769755E0,-5.7644527E-2,-3.9790317E-2,-4.784104E-2,-2.9446784E-2,-3.6881905E-2,-2.3351474E-2,-1.71834E-2,3.183207E-3,-4.3984257E-2,-1.775691E-2,2.4072496E-2,-6.345962E-2,-1.3820814E-2,5.863655E-3,1.5984348E-3,2.864368E-2,-3.20137E-2,-9.777519E-3,2.365619E-2,-3.4116711E-3,-1.22706015E-2,3.9868683E-2,-1.2194129E-2,1.6374525E-2,2.5943477E-2,-7.835296E-3,1.2884055E-2,3.647163E-2,1.6725603E-2,4.1935936E-2,6.7436576E-2,1.6487379E-2,-1.5293027E-2,1.2883109E-2,-3.26488E-2,4.4364836E-2,1.9164238E-2,3.8157698E-2,3.5926394E-2,7.0414886E-2,7.3636854E-3,3.4137905E-2,5.9075028E-2,-1.6966995E-2,3.466625E-2,5.567897E-2,7.6261334E-2,-8.825295E-3,-5.819062E-2,1.807299E-2,2.8305028E-2,5.6690525E-2,5.5756778E-2,1.9099632E-2,-2.1173274E-2,7.798748E-2,5.844381E-2,1.1541894E-2,7.079325E-2,3.2246497E-2,-1.8164117E-2,6.032123E-2,7.7705346E-2,9.209236E-2],"categories":[],"categories_nodes":[],"categories_segments":[],"categories_sizes":[],"default_left":[0,0,0,0,0,0,0,0,0,0,0,0,0,0,0,0,0,0,0,0,0,0,0,0,0,0,0,0,0,0,0,0,0,0,0,0,0,0,0,0,0,0,0,0,0,0,0,0,0,0,0,0,0,0,0,0,0,0,0,0,0,0,0,0,0,0,0,0,0,0,0,0,0,0,0,0,0,0,0,0,0,0,0,0,0,0,0,0,0,0,0,0,0,0,0,0,0,0,0,0,0,0,0,0,0,0,0,0,0,0,0,0,0,0,0,0,0,0,0,0,0,0,0,0,0,0,0],"id":3,"left_children":[1,3,5,7,9,11,13,15,17,19,21,23,25,27,29,31,33,35,37,39,41,43,45,47,49,51,53,55,57,59,61,63,65,67,69,71,73,75,77,79,81,83,85,87,89,91,93,95,97,99,101,103,105,107,109,111,113,115,117,119,121,123,125,-1,-1,-1,-1,-1,-1,-1,-1,-1,-1,-1,-1,-1,-1,-1,-1,-1,-1,-1,-1,-1,-1,-1,-1,-1,-1,-1,-1,-1,-1,-1,-1,-1,-1,-1,-1,-1,-1,-1,-1,-1,-1,-1,-1,-1,-1,-1,-1,-1,-1,-1,-1,-1,-1,-1,-1,-1,-1,-1,-1,-1,-1,-1,-1],"loss_changes":[4.249741E3,6.974242E2,3.9186426E2,4.2311816E2,1.2227289E2,2.1017969E2,8.950464E1,1.6937866E2,9.706365E1,2.8942936E1,2.7872421E1,1.0838953E2,2.8962036E1,6.544641E1,1.2922119E1,6.866577E1,6.0402954E1,5.922969E1,4.556522E1,2.673892E1,2.5456133E1,1.2294579E1,1.2794846E1,6.141269E1,3.6348206E1,2.9931793E1,1.58237915E1,2.2603455E1,1.8408905E1,9.028992E0,4.420166E0,6.105896E1,2.1587952E1,3.3328247E1,1.7957409E1,4.8218933E1,1.1912146E1,2.4134596E1,2.2948925E1,1.9169697E1,1.6080872E1,1.9994865E1,1.889764E1,1.7371214E1,8.747665E0,9.743118E0,8.869331E0,6.4416985E1,9.443985E0,4.450168E1,1.5238434E1,1.7912384E1,1.0751282E1,1.8407013E1,6.119339E0,3.2981324E0,1.7551056E1,9.858185E0,1.102002E1,9.486065E0,4.5749817E0,4.287696E0,1.2507324E0,0E0,0E0,0E0,0E0,0E0,0E0,0E0,0E0,0E0,0E0,0E0,0E0,0E0,0E0,0E0,0E0,0E0,0E0,0E0,0E0,0E0,0E0,0E0,0E0,0E0,0E0,0E0,0E0,0E0,0E0,0E0,0E0,0E0,0E0,0E0,0E0,0E0,0E0,0E0,0E0,0E0,0E0,0E0,0E0,0E0,0E0,0E0,0E0,0E0,0E0,0E0,0E0,0E0,0E0,0E0,0E0,0E0,0E0,0E0,0E0,0E0,0E0,0E0,0E0],"parents":[2147483647,0,0,1,1,2,2,3,3,4,4,5,5,6,6,7,7,8,8,9,9,10,10,11,11,12,12,13,13,14,14,15,15,16,16,17,17,18,18,19,19,20,20,21,21,22,22,23,23,24,24,25,25,26,26,27,27,28,28,29,29,30,30,31,31,32,32,33,33,34,34,35,35,36,36,37,37,38,38,39,39,40,40,41,41,42,42,43,43,44,44,45,45,46,46,47,47,48,48,49,49,50,50,51,51,52,52,53,53,54,54,55,55,56,56,57,57,58,58,59,59,60,60,61,61,62,62],"right_children":[2,4,6,8,10,12,14,16,18,20,22,24,26,28,30,32,34,36,38,40,42,44,46,48,50,52,54,56,58,60,62,64,66,68,70,72,74,76,78,80,82,84,86,88,90,92,94,96,98,100,102,104,106,108,110,112,114,116,118,120,122,124,126,-1,-1,-1,-1,-1,-1,-1,-1,-1,-1,-1,-1,-1,-1,-1,-1,-1,-1,-1,-1,-1,-1,-1,-1,-1,-1,-1,-1,-1,-1,-1,-1,-1,-1,-1,-1,-1,-1,-1,-1,-1,-1,-1,-1,-1,-1,-1,-1,-1,-1,-1,-1,-1,-1,-1,-1,-1,-1,-1,-1,-1,-1,-1,-1],"split_conditions":[6.151E1,2.931E1,8.524E1,1.13E0,1.66E0,2.23E0,1.566E0,4.617E1,4.769E1,1.814695E0,2.84E0,9.78E-1,9.3E-1,1.4299564E1,1.51E0,5.042796E0,3.5346677E0,4.43E0,3.274894E0,4.83E-1,5.090092E2,1.7157375E0,1.011E0,2.3208014E1,7.228E1,7.51E1,1.5824951E1,2.53E1,1.2E0,1.72E0,6.455039E5,1.586E1,8.68E0,5.38E-1,2.416E1,1.23E-1,5.644789E2,2.59E0,2.04E0,1.3519258E2,1.663415E6,6.552004E5,3.058E1,2.2859495E0,8.07E-1,5.563E1,6.537682E0,2.965E1,1.6609909E6,1.01E0,1.819E0,2.802E1,6.93E-1,2.835E1,3.456E1,2.84E0,7.918E1,3.265E1,5.000031E2,5.254974E2,1.32E0,1.485E2,3.04E0,-5.7644527E-2,-3.9790317E-2,-4.784104E-2,-2.9446784E-2,-3.6881905E-2,-2.3351474E-2,-1.71834E-2,3.183207E-3,-4.3984257E-2,-1.775691E-2,2.4072496E-2,-6.345962E-2,-1.3820814E-2,5.863655E-3,1.5984348E-3,2.864368E-2,-3.20137E-2,-9.777519E-3,2.365619E-2,-3.4116711E-3,-1.22706015E-2,3.9868683E-2,-1.2194129E-2,1.6374525E-2,2.5943477E-2,-7.835296E-3,1.2884055E-2,3.647163E-2,1.6725603E-2,4.1935936E-2,6.7436576E-2,1.6487379E-2,-1.5293027E-2,1.2883109E-2,-3.26488E-2,4.4364836E-2,1.9164238E-2,3.8157698E-2,3.5926394E-2,7.0414886E-2,7.3636854E-3,3.4137905E-2,5.9075028E-2,-1.6966995E-2,3.466625E-2,5.567897E-2,7.6261334E-2,-8.825295E-3,-5.819062E-2,1.807299E-2,2.8305028E-2,5.6690525E-2,5.5756778E-2,1.9099632E-2,-2.1173274E-2,7.798748E-2,5.844381E-2,1.1541894E-2,7.079325E-2,3.2246497E-2,-1.8164117E-2,6.032123E-2,7.7705346E-2,9.209236E-2],"split_indices":[4,1,4,5,5,5,3,4,4,10,5,3,3,9,5,9,10,5,10,2,8,10,3,9,1,4,9,0,5,3,7,1,1,3,1,3,8,5,5,11,6,7,1,9,3,4,9,1,6,5,3,0,2,0,0,5,1,0,8,8,5,1,5,0,0,0,0,0,0,0,0,0,0,0,0,0,0,0,0,0,0,0,0,0,0,0,0,0,0,0,0,0,0,0,0,0,0,0,0,0,0,0,0,0,0,0,0,0,0,0,0,0,0,0,0,0,0,0,0,0,0,0,0,0,0,0,0],"split_type":[0,0,0,0,0,0,0,0,0,0,0,0,0,0,0,0,0,0,0,0,0,0,0,0,0,0,0,0,0,0,0,0,0,0,0,0,0,0,0,0,0,0,0,0,0,0,0,0,0,0,0,0,0,0,0,0,0,0,0,0,0,0,0,0,0,0,0,0,0,0,0,0,0,0,0,0,0,0,0,0,0,0,0,0,0,0,0,0,0,0,0,0,0,0,0,0,0,0,0,0,0,0,0,0,0,0,0,0,0,0,0,0,0,0,0,0,0,0,0,0,0,0,0,0,0,0,0],"sum_hessian":[1.6839178E4,1.0092686E4,6.7464927E3,7.890989E3,2.201697E3,5.583831E3,1.1626614E3,5.3754863E3,2.5155022E3,1.6655597E3,5.361372E2,4.5542783E3,1.029553E3,6.619612E2,5.0070023E2,2.947748E3,2.4277385E3,1.5382406E3,9.7726166E2,9.779736E2,6.875861E2,3.1905072E2,2.170865E2,2.2389094E3,2.3153687E3,4.5380573E2,5.757472E2,4.01364E2,2.6059717E2,2.929343E2,2.0776595E2,1.9604368E3,9.8731116E2,1.8506416E3,5.7709686E2,1.4490381E3,8.920257E1,6.6015765E2,3.17104E2,7.358485E2,2.4212508E2,2.4480365E2,4.427825E2,1.5944449E2,1.5960623E2,1.579665E2,5.911999E1,2.0850278E3,1.5388173E2,1.7015258E3,6.1384296E2,3.296065E2,1.2419923E2,4.9866507E2,7.708212E1,8.331476E0,3.9303253E2,1.18217415E2,1.4237975E2,5.190138E1,2.4103291E2,5.723053E0,2.020429E2,1.069378E3,8.910588E2,2.0444913E2,7.82862E2,9.986426E2,8.51999E2,4.3331848E2,1.4377838E2,2.038303E2,1.2452078E3,8.6075615E1,3.1269486E0,4.103003E2,2.4985733E2,1.4104094E2,1.7606306E2,1.14296844E2,6.215517E2,8.24296E1,1.5969547E2,2.2576506E2,1.903858E1,6.7659904E1,3.751226E2,6.054698E1,9.8897514E1,8.060775E1,7.8998474E1,7.309156E1,8.487495E1,4.7823338E1,1.1296654E1,2.2684712E2,1.8581807E3,3.4073308E0,1.504744E2,1.2951556E3,4.0637015E2,5.795868E2,3.425621E1,8.460415E1,2.4500235E2,1.1977489E2,4.424345E0,1.6117131E2,3.3749374E2,7.5110535E1,1.9715886E0,7.10077E0,1.2307062E0,3.2674966E2,6.628286E1,9.3755135E1,2.446228E1,2.4706302E0,1.3990912E2,3.5839718E1,1.606166E1,2.3058035E2,1.0452556E1,2.2375822E0,3.4854708E0,1.2174222E2,8.030067E1],"tree_param":{"num_deleted":"0","num_feature":"15","num_nodes":"127","size_leaf_vector":"1"}},{"base_weights":[7.6766983E-3,-3.8626236E-1,5.874918E-1,-5.173576E-1,9.0801224E-2,4.6358484E-1,1.0715322E0,-6.3949555E-1,-2.66386E-1,2.413651E-2,3.0489275E-1,1.4822355E-1,5.4901654E-1,8.2010376E-1,1.3480026E0,-7.817818E-1,-4.987282E-1,-3.4648803E-1,-8.012043E-2,-1.6290177E-1,1.000715E-1,1.7491892E-1,5.1820743E-1,2.5901545E-2,4.196141E-1,4.9660945E-1,7.5666535E-1,6.0163856E-1,1.2093252E0,1.1424543E0,1.4799584E0,-8.9297223E-1,-5.578414E-1,-6.59805E-1,-4.1968736E-1,-9.869104E-1,-3.1338686E-1,-4.086882E-1,1.0965393E-2,5.860329E-1,-2.0367776E-1,8.432032E-2,7.1939033E-1,1.5765462E0,1.5173732E-1,3.9777917E-1,1.3087817E0,-2.327203E-2,8.240302E-1,1.9883853E-1,6.9663495E-1,4.3595356E-1,7.390382E-1,6.220825E-1,8.837904E-1,6.787483E-1,1.7665595E-2,1.6083243E0,1.1208557E0,8.644545E-1,1.4310266E0,-1.0781693E-2,1.4889942E0,-4.832733E-2,-2.5594557E-2,-4.111173E-2,-2.333834E-2,-3.7636444E-2,-1.855021E-2,-1.6135182E-2,-2.8140396E-2,2.3498205E-2,-5.1852882E-2,-2.4279717E-2,-1.2034951E-2,-1.1611228E-2,-5.2090354E-2,-2.7601002E-2,4.971595E-3,5.6076575E-2,-3.4826376E-2,-1.1832544E-2,4.426352E-2,-6.986779E-3,6.4692684E-3,4.4769216E-2,-5.693186E-2,2.1456933E-2,9.1115884E-2,-4.841762E-2,8.741375E-3,1.2306619E-2,3.7583217E-2,-1.1980734E-2,7.33296E-2,1.0948689E-2,-5.1596393E-3,5.058694E-2,-4.312421E-2,-6.207177E-2,1.3454384E-2,1.7034432E-2,4.965126E-2,1.2610676E-2,2.449025E-2,-4.519631E-2,3.8006183E-2,7.668478E-3,3.5284176E-2,4.78688E-3,4.6276543E-2,-1.0711289E-2,3.5495274E-2,1.3280583E-2,-5.3022232E-2,8.296021E-2,3.7006822E-3,-2.4650058E-2,5.7094645E-2,-9.908029E-4,4.9371958E-2,4.183377E-2,7.904525E-2,6.606395E-2,7.980623E-2],"categories":[],"categories_nodes":[],"categories_segments":[],"categories_sizes":[],"default_left":[0,0,0,0,0,0,0,0,0,0,0,0,0,0,0,0,0,0,0,0,0,0,0,0,0,0,0,0,0,0,0,0,0,0,0,0,0,0,0,0,0,0,0,0,0,0,0,0,0,0,0,0,0,0,0,0,0,0,0,0,0,0,0,0,0,0,0,0,0,0,0,0,0,0,0,0,0,0,0,0,0,0,0,0,0,0,0,0,0,0,0,0,0,0,0,0,0,0,0,0,0,0,0,0,0,0,0,0,0,0,0,0,0,0,0,0,0,0,0,0,0,0,0,0,0],"id":4,"left_children":[1,3,5,7,9,11,13,15,17,19,21,23,25,27,29,31,33,35,37,39,41,43,45,47,49,51,53,55,57,59,61,63,65,67,69,71,73,75,77,79,81,83,85,87,89,91,93,95,97,99,101,103,105,107,109,111,113,115,117,119,121,-1,123,-1,-1,-1,-1,-1,-1,-1,-1,-1,-1,-1,-1,-1,-1,-1,-1,-1,-1,-1,-1,-1,-1,-1,-1,-1,-1,-1,-1,-1,-1,-1,-1,-1,-1,-1,-1,-1,-1,-1,-1,-1,-1,-1,-1,-1,-1,-1,-1,-1,-1,-1,-1,-1,-1,-1,-1,-1,-1,-1,-1,-1,-1],"loss_changes":[3.844548E3,6.2684924E2,4.0790137E2,2.4082617E2,3.0838997E1,1.4603198E2,9.531299E1,1.0551807E2,3.8397278E1,2.3439001E1,1.4135227E1,3.841072E1,4.6057983E1,6.1259033E1,1.6185669E1,6.493628E1,3.3599243E1,3.786113E1,2.3221422E1,1.4673627E1,1.138761E1,1.016935E1,1.7926544E1,3.1371948E1,2.1849464E1,4.982013E1,1.4129059E1,2.1102737E1,7.4132996E0,1.9786957E1,6.4189453E0,4.8692993E1,2.0674957E1,2.3178925E1,2.4631897E1,6.9185104E0,2.1332565E1,1.8572756E1,3.035436E1,1.785939E1,1.6464888E1,1.1585359E1,1.0494279E1,6.5771866E-1,8.348168E0,8.91563E0,6.503433E0,1.4610153E1,1.5558361E1,2.0718357E1,1.6441223E1,2.6888428E1,2.4278229E1,1.6354767E1,1.4346161E1,1.1675659E1,1.5176441E1,3.3966904E0,7.930298E0,1.4810417E1,9.996216E0,0E0,5.006714E0,0E0,0E0,0E0,0E0,0E0,0E0,0E0,0E0,0E0,0E0,0E0,0E0,0E0,0E0,0E0,0E0,0E0,0E0,0E0,0E0,0E0,0E0,0E0,0E0,0E0,0E0,0E0,0E0,0E0,0E0,0E0,0E0,0E0,0E0,0E0,0E0,0E0,0E0,0E0,0E0,0E0,0E0,0E0,0E0,0E0,0E0,0E0,0E0,0E0,0E0,0E0,0E0,0E0,0E0,0E0,0E0,0E0,0E0,0E0,0E0,0E0,0E0],"parents":[2147483647,0,0,1,1,2,2,3,3,4,4,5,5,6,6,7,7,8,8,9,9,10,10,11,11,12,12,13,13,14,14,15,15,16,16,17,17,18,18,19,19,20,20,21,21,22,22,23,23,24,24,25,25,26,26,27,27,28,28,29,29,30,30,31,31,32,32,33,33,34,34,35,35,36,36,37,37,38,38,39,39,40,40,41,41,42,42,43,43,44,44,45,45,46,46,47,47,48,48,49,49,50,50,51,51,52,52,53,53,54,54,55,55,56,56,57,57,58,58,59,59,60,60,62,62],"right_children":[2,4,6,8,10,12,14,16,18,20,22,24,26,28,30,32,34,36,38,40,42,44,46,48,50,52,54,56,58,60,62,64,66,68,70,72,74,76,78,80,82,84,86,88,90,92,94,96,98,100,102,104,106,108,110,112,114,116,118,120,122,-1,124,-1,-1,-1,-1,-1,-1,-1,-1,-1,-1,-1,-1,-1,-1,-1,-1,-1,-1,-1,-1,-1,-1,-1,-1,-1,-1,-1,-1,-1,-1,-1,-1,-1,-1,-1,-1,-1,-1,-1,-1,-1,-1,-1,-1,-1,-1,-1,-1,-1,-1,-1,-1,-1,-1,-1,-1,-1,-1,-1,-1,-1,-1],"split_conditions":[6.151E1,2.947E1,8.39E1,4.9E1,1.03E0,7.03E-1,1.435E0,4.49E-1,9.38282E0,3.629E1,2.2479146E2,7.139E1,7.228E1,1.4589284E1,9.2E1,5.1930575E0,1.376E1,1.087E1,6.4823106E5,1.23E-1,1.5576171E1,2.965E1,1.435E0,2.3827011E1,6E-1,1.220405E1,1.221E0,3.366E1,2.66E1,1.819E0,1.6374774E0,2.238E1,4.9851688E2,8.023612E0,1.6655361E6,6.189145E1,2.795E1,3.253E1,2.2E-1,1.1E1,3.484E1,6.47019E5,9.72E-1,3E0,6.564341E1,5.2761395E2,2.66E1,2.8642046E0,6.35E-1,4.689372E2,1.6652331E6,7E0,1.6591728E6,7.172E1,2.557E1,5.96E-1,5.448622E2,1.348E0,2E0,1.53E2,7E0,-1.0781693E-2,5.886643E0,-4.832733E-2,-2.5594557E-2,-4.111173E-2,-2.333834E-2,-3.7636444E-2,-1.855021E-2,-1.6135182E-2,-2.8140396E-2,2.3498205E-2,-5.1852882E-2,-2.4279717E-2,-1.2034951E-2,-1.1611228E-2,-5.2090354E-2,-2.7601002E-2,4.971595E-3,5.6076575E-2,-3.4826376E-2,-1.1832544E-2,4.426352E-2,-6.986779E-3,6.4692684E-3,4.4769216E-2,-5.693186E-2,2.1456933E-2,9.1115884E-2,-4.841762E-2,8.741375E-3,1.2306619E-2,3.7583217E-2,-1.1980734E-2,7.33296E-2,1.0948689E-2,-5.1596393E-3,5.058694E-2,-4.312421E-2,-6.207177E-2,1.3454384E-2,1.7034432E-2,4.965126E-2,1.2610676E-2,2.449025E-2,-4.519631E-2,3.8006183E-2,7.668478E-3,3.5284176E-2,4.78688E-3,4.6276543E-2,-1.0711289E-2,3.5495274E-2,1.3280583E-2,-5.3022232E-2,8.296021E-2,3.7006822E-3,-2.4650058E-2,5.7094645E-2,-9.908029E-4,4.9371958E-2,4.183377E-2,7.904525E-2,6.606395E-2,7.980623E-2],"split_indices":[4,1,4,4,3,3,3,3,9,1,11,4,1,9,4,9,1,1,7,3,9,1,3,9,3,9,3,0,0,3,9,1,8,9,6,11,0,0,3,12,0,7,3,12,11,8,0,9,3,8,6,12,6,4,0,3,8,3,12,14,12,0,9,0,0,0,0,0,0,0,0,0,0,0,0,0,0,0,0,0,0,0,0,0,0,0,0,0,0,0,0,0,0,0,0,0,0,0,0,0,0,0,0,0,0,0,0,0,0,0,0,0,0,0,0,0,0,0,0,0,0,0,0,0,0],"split_type":[0,0,0,0,0,0,0,0,0,0,0,0,0,0,0,0,0,0,0,0,0,0,0,0,0,0,0,0,0,0,0,0,0,0,0,0,0,0,0,0,0,0,0,0,0,0,0,0,0,0,0,0,0,0,0,0,0,0,0,0,0,0,0,0,0,0,0,0,0,0,0,0,0,0,0,0,0,0,0,0,0,0,0,0,0,0,0,0,0,0,0,0,0,0,0,0,0,0,0,0,0,0,0,0,0,0,0,0,0,0,0,0,0,0,0,0,0,0,0,0,0,0,0,0,0],"sum_hessian":[1.6829658E4,1.0021301E4,6.8083564E3,7.861034E3,2.1602668E3,5.42229E3,1.3860664E3,5.286672E3,2.574362E3,1.6481666E3,5.121002E2,1.15638E3,4.26591E3,7.279857E2,6.580806E2,2.6268872E3,2.6597847E3,1.7995989E3,7.7476337E2,4.7558652E2,1.1725801E3,3.1934286E2,1.9275739E2,7.978611E2,3.5851898E2,3.4089424E3,8.569678E2,4.679032E2,2.6008255E2,2.6106955E2,3.970111E2,1.7533362E3,8.735511E2,8.73117E2,1.7866677E3,8.7027466E1,1.7125714E3,1.6740558E2,6.073578E2,2.3866024E1,4.517205E2,1.1446053E3,2.797466E1,4.1054735E0,3.152374E2,1.6858063E2,2.4176758E1,7.524713E2,4.5389736E1,2.0046968E2,1.580493E2,2.728954E3,6.799882E2,4.191361E2,4.3783167E2,4.131829E2,5.472032E1,4.4083878E1,2.1599867E2,1.350057E2,1.2606383E2,1.9832504E0,3.9502786E2,1.4683159E3,2.8502026E2,2.2175624E2,6.5179486E2,6.593573E2,2.1375972E2,1.066931E3,7.197367E2,2.6173306E0,8.441014E1,5.066255E2,1.2059458E3,1.3198528E2,3.5420303E1,8.1767E1,5.2559076E2,1.6925E1,6.941024E0,4.3920416E2,1.2516329E1,1.9131552E2,9.5328986E2,2.602742E1,1.9472404E0,1.2086879E0,2.8967853E0,5.54036E0,3.0969702E2,1.1919762E2,4.938301E1,2.1882086E0,2.1988548E1,1.8623604E2,5.662353E2,4.1203857E1,4.1858783E0,8.5477915E0,1.9192189E2,7.278658E1,8.5262726E1,6.19821E2,2.109133E3,8.085674E0,6.719025E2,6.3871624E1,3.5526447E2,2.218959E1,4.156421E2,1.3732385E1,3.994505E2,4.5101433E1,9.61889E0,4.259013E1,1.4937472E0,2.4907134E0,2.1350795E2,1.6586454E1,1.1841925E2,2.6713257E1,9.935057E1,1.5917256E2,2.3585529E2],"tree_param":{"num_deleted":"0","num_feature":"15","num_nodes":"125","size_leaf_vector":"1"}},{"base_weights":[3.5621359E-3,-4.466722E-1,4.96319E-1,-6.0426116E-1,-1.2661004E-1,3.471831E-1,8.463037E-1,-9.1721964E-1,-4.4804174E-1,-2.278479E-1,4.588963E-1,2.3315513E-1,6.4625776E-1,7.2634435E-1,1.3668575E0,-9.9158376E-1,-5.499948E-1,-5.0124115E-1,5.5710816E-1,-3.3642167E-1,3.7122015E-2,2.8321102E-1,9.7795045E-1,5.0813466E-2,3.6109036E-1,2.7768883E-1,7.370036E-1,5.7685846E-1,1.0976235E0,1.2516041E0,1.5403402E0,-1.0895464E0,-6.731639E-1,-7.289648E-2,-6.506119E-1,-6.3227403E-1,-3.441899E-1,6.8431884E-1,-3.520918E-2,-6.011386E-1,-2.2446822E-1,-1.0295507E-1,4.129943E-1,2.0125788E-1,1.0875688E0,1.4153868E0,4.8904106E-1,-4.8024517E-2,2.984845E-1,2.8897902E-1,5.833148E-1,-6.452427E-2,2.9808944E-1,6.2929755E-1,9.357511E-1,5.033053E-1,1.0024453E0,9.734204E-1,1.513303E0,1.2612402E0,-7.986007E-3,-6.131173E-4,1.5538784E0,-5.680108E-2,-3.5892203E-2,-4.977297E-2,-2.6847083E-2,-4.78808E-2,1.45022115E-2,-4.543531E-2,-1.5513852E-2,-3.735027E-2,-2.3210881E-2,-2.4141E-2,-9.2069125E-3,-1.1512678E-2,3.7340112E-2,-6.813222E-2,8.943562E-3,-3.7459813E-2,-9.39829E-3,-2.3237642E-2,-5.9614535E-3,-1.2338708E-2,1.1363579E-2,-6.704138E-2,2.2867106E-2,5.1062913E-3,3.6653835E-2,-2.6762864E-2,7.4430615E-2,-1.872172E-3,7.523955E-2,-6.6734673E-3,4.3413904E-2,-6.154575E-5,-1.5420507E-2,7.908414E-3,2.9888976E-2,1.8376673E-3,1.7632892E-2,1.6864846E-2,3.2894876E-2,1.2730475E-2,5.545969E-2,-1.1718611E-2,3.331156E-2,4.2102253E-3,4.8046306E-2,2.4208693E-2,6.410333E-2,-5.5696525E-2,5.1175393E-2,2.7952082E-3,5.002063E-2,-9.3855765E-3,7.941098E-2,6.6030994E-2,5.1061E-2,8.099503E-2,6.508935E-2],"categories":[],"categories_nodes":[],"categories_segments":[],"categories_sizes":[],"default_left":[0,0,0,0,0,0,0,0,0,0,0,0,0,0,0,0,0,0,0,0,0,0,0,0,0,0,0,0,0,0,0,0,0,0,0,0,0,0,0,0,0,0,0,0,0,0,0,0,0,0,0,0,0,0,0,0,0,0,0,0,0,0,0,0,0,0,0,0,0,0,0,0,0,0,0,0,0,0,0,0,0,0,0,0,0,0,0,0,0,0,0,0,0,0,0,0,0,0,0,0,0,0,0,0,0,0,0,0,0,0,0,0,0,0,0,0,0,0,0,0,0],"id":5,"left_children":[1,3,5,7,9,11,13,15,17,19,21,23,25,27,29,31,33,35,37,39,41,43,45,47,49,51,53,55,57,59,61,63,65,67,69,71,73,75,77,79,81,83,85,87,89,91,93,95,97,99,101,-1,103,105,107,109,111,113,115,117,-1,-1,119,-1,-1,-1,-1,-1,-1,-1,-1,-1,-1,-1,-1,-1,-1,-1,-1,-1,-1,-1,-1,-1,-1,-1,-1,-1,-1,-1,-1,-1,-1,-1,-1,-1,-1,-1,-1,-1,-1,-1,-1,-1,-1,-1,-1,-1,-1,-1,-1,-1,-1,-1,-1,-1,-1,-1,-1,-1,-1],"loss_changes":[3.7276577E3,4.4276697E2,4.1842908E2,2.872068E2,1.7188321E2,1.9174304E2,1.486466E2,5.292041E1,2.1022015E2,7.111258E1,3.8710747E1,9.504964E1,5.1724487E1,1.0757495E2,7.022888E0,5.001477E1,1.5887573E1,7.6526306E1,1.4929916E1,5.182248E1,3.7911507E1,2.0930365E1,2.2343216E1,4.117656E1,3.820755E1,1.024942E1,2.6067749E1,4.3073273E1,2.7363892E1,3.9319458E0,3.683899E0,2.0649048E1,1.6385101E1,1.9203373E1,2.378669E1,3.8829773E1,3.759561E1,9.48085E0,1.0453045E1,3.169896E1,3.1141678E1,2.497913E1,1.5816509E1,1.5340274E1,1.9956375E1,7.371582E0,1.2484076E1,1.4654258E1,2.0053913E1,2.905896E1,1.0525497E1,0E0,1.0481194E1,2.6014923E1,9.257507E0,1.709372E1,1.0239624E1,1.0663971E1,1.6443146E1,2.5359802E0,0E0,0E0,7.682495E-1,0E0,0E0,0E0,0E0,0E0,0E0,0E0,0E0,0E0,0E0,0E0,0E0,0E0,0E0,0E0,0E0,0E0,0E0,0E0,0E0,0E0,0E0,0E0,0E0,0E0,0E0,0E0,0E0,0E0,0E0,0E0,0E0,0E0,0E0,0E0,0E0,0E0,0E0,0E0,0E0,0E0,0E0,0E0,0E0,0E0,0E0,0E0,0E0,0E0,0E0,0E0,0E0,0E0,0E0,0E0,0E0,0E0,0E0],"parents":[2147483647,0,0,1,1,2,2,3,3,4,4,5,5,6,6,7,7,8,8,9,9,10,10,11,11,12,12,13,13,14,14,15,15,16,16,17,17,18,18,19,19,20,20,21,21,22,22,23,23,24,24,25,25,26,26,27,27,28,28,29,29,30,30,31,31,32,32,33,33,34,34,35,35,36,36,37,37,38,38,39,39,40,40,41,41,42,42,43,43,44,44,45,45,46,46,47,47,48,48,49,49,50,50,52,52,53,53,54,54,55,55,56,56,57,57,58,58,59,59,62,62],"right_children":[2,4,6,8,10,12,14,16,18,20,22,24,26,28,30,32,34,36,38,40,42,44,46,48,50,52,54,56,58,60,62,64,66,68,70,72,74,76,78,80,82,84,86,88,90,92,94,96,98,100,102,-1,104,106,108,110,112,114,116,118,-1,-1,120,-1,-1,-1,-1,-1,-1,-1,-1,-1,-1,-1,-1,-1,-1,-1,-1,-1,-1,-1,-1,-1,-1,-1,-1,-1,-1,-1,-1,-1,-1,-1,-1,-1,-1,-1,-1,-1,-1,-1,-1,-1,-1,-1,-1,-1,-1,-1,-1,-1,-1,-1,-1,-1,-1,-1,-1,-1,-1],"split_conditions":[3.436E1,1.09E0,7.762E1,4.246E1,4.1628294E0,1.55E0,1.125E2,2.16E1,8.95092E0,2.82E0,9.619942E0,6.403E1,6.63E-1,1.83E0,2.4349117E0,2.4264002E0,2.656E1,5.57E-1,2.4456499E2,1.3643913E0,2.464E1,1.023E0,1.7307196E2,1.03E0,1.231E0,4.333E1,2.4573395E0,6.2763586E0,8.097254E0,3.487E1,5.640417E1,6.7E-1,8.5E0,4.01E-1,6.515642E5,5.111E1,2.433E1,7.15E0,2.5123067E2,4.9E1,1.423E1,6E0,2.534E1,3.58E0,6.494431E5,5.640417E1,1.95E0,3.34E1,4.99E-1,7E0,7E0,-6.452427E-2,4.78E0,6.4580694E5,4.785735E2,1.819E0,4.04E-1,5.06E1,8.11E-1,5E0,-7.986007E-3,-6.131173E-4,9E0,-5.680108E-2,-3.5892203E-2,-4.977297E-2,-2.6847083E-2,-4.78808E-2,1.45022115E-2,-4.543531E-2,-1.5513852E-2,-3.735027E-2,-2.3210881E-2,-2.4141E-2,-9.2069125E-3,-1.1512678E-2,3.7340112E-2,-6.813222E-2,8.943562E-3,-3.7459813E-2,-9.39829E-3,-2.3237642E-2,-5.9614535E-3,-1.2338708E-2,1.1363579E-2,-6.704138E-2,2.2867106E-2,5.1062913E-3,3.6653835E-2,-2.6762864E-2,7.4430615E-2,-1.872172E-3,7.523955E-2,-6.6734673E-3,4.3413904E-2,-6.154575E-5,-1.5420507E-2,7.908414E-3,2.9888976E-2,1.8376673E-3,1.7632892E-2,1.6864846E-2,3.2894876E-2,1.2730475E-2,5.545969E-2,-1.1718611E-2,3.331156E-2,4.2102253E-3,4.8046306E-2,2.4208693E-2,6.410333E-2,-5.5696525E-2,5.1175393E-2,2.7952082E-3,5.002063E-2,-9.3855765E-3,7.941098E-2,6.6030994E-2,5.1061E-2,8.099503E-2,6.508935E-2],"split_indices":[1,5,4,4,10,5,1,1,10,5,10,4,3,5,10,10,0,3,11,10,1,3,11,3,3,4,10,10,10,0,11,5,1,3,7,4,1,1,11,4,1,12,0,5,7,11,5,0,2,12,12,0,5,7,8,3,2,1,3,13,0,0,12,0,0,0,0,0,0,0,0,0,0,0,0,0,0,0,0,0,0,0,0,0,0,0,0,0,0,0,0,0,0,0,0,0,0,0,0,0,0,0,0,0,0,0,0,0,0,0,0,0,0,0,0,0,0,0,0,0,0],"split_type":[0,0,0,0,0,0,0,0,0,0,0,0,0,0,0,0,0,0,0,0,0,0,0,0,0,0,0,0,0,0,0,0,0,0,0,0,0,0,0,0,0,0,0,0,0,0,0,0,0,0,0,0,0,0,0,0,0,0,0,0,0,0,0,0,0,0,0,0,0,0,0,0,0,0,0,0,0,0,0,0,0,0,0,0,0,0,0,0,0,0,0,0,0,0,0,0,0,0,0,0,0,0,0,0,0,0,0,0,0,0,0,0,0,0,0,0,0,0,0,0,0],"sum_hessian":[1.6800146E4,8.778909E3,8.021238E3,5.881934E3,2.8969749E3,5.6259097E3,2.395328E3,1.956851E3,3.925083E3,2.470432E3,4.2654294E2,4.0742886E3,1.5516213E3,1.9486626E3,4.4666525E2,1.6259009E3,3.3095004E2,3.7282593E3,1.9682362E2,1.7521877E3,7.182441E2,3.1983377E2,1.0670915E2,1.6805112E3,2.3937773E3,3.0735278E2,1.2442686E3,1.3911185E3,5.5754407E2,2.7330746E2,1.7335779E2,1.2415216E3,3.8437933E2,5.793983E1,2.7301022E2,2.0308392E3,1.6974202E3,1.6189787E2,3.4925755E1,5.194842E2,1.2327036E3,5.237742E2,1.9446991E2,2.913948E2,2.843897E1,5.5319115E1,5.1390038E1,1.2017395E3,4.7877164E2,1.8090461E3,5.847312E2,3.1475387E0,3.0420523E2,8.0966046E2,4.3460812E2,1.1879846E3,2.0313396E2,4.3185077E2,1.2569325E2,2.7155966E2,1.7478042E0,1.4993705E0,1.7185843E2,1.1017145E3,1.3980713E2,1.12322365E2,2.7205698E2,1.6377893E1,4.1561935E1,1.5431488E2,1.18695335E2,1.2048489E3,8.259904E2,9.084993E2,7.889208E2,1.0181775E1,1.517161E2,4.105282E0,3.0820473E1,3.8184085E2,1.3764333E2,3.7441464E2,8.5828894E2,3.650442E2,1.5872998E2,4.0751643E0,1.9039474E2,2.4661696E2,4.477785E1,5.56906E0,2.2869911E1,3.2405715E0,5.2078545E1,1.9700346E1,3.1689692E1,1.01952637E3,1.8221318E2,3.2699667E2,1.5177493E2,3.649785E2,1.4440676E3,1.3731342E2,4.474178E2,2.899748E2,1.4230445E1,3.2984848E1,7.7667566E2,1.2604514E1,4.220036E2,1.1610826E3,2.6901989E1,1.4903997E0,2.0164355E2,1.2429198E1,4.1942157E2,5.2387724E0,1.2045448E2,2.1409236E2,5.746729E1,1.318907E2,3.9967724E1],"tree_param":{"num_deleted":"0","num_feature":"15","num_nodes":"121","size_leaf_vector":"1"}},{"base_weights":[-2.5655848E-3,-3.808838E-1,5.0108534E-1,-5.9583503E-1,-1.6344789E-1,4.235146E-1,1.1472027E0,-7.409031E-1,-2.9286432E-1,-3.0893394E-1,1.5657306E-1,3.1738287E-1,7.276988E-1,9.2872626E-1,1.3339462E0,-9.044133E-1,-6.141236E-1,-4.950513E-1,-1.4098698E-1,-5.1964676E-1,-1.4791909E-1,9.759962E-2,6.2925303E-1,4.925005E-3,3.9060465E-1,5.7721573E-1,8.7068427E-1,6.142201E-1,1.1281025E0,3.162744E-1,1.3589853E0,-1.019165E0,-6.463566E-1,-6.9859535E-1,-3.9091948E-1,-6.592377E-1,-2.7466604E-1,-2.3697896E-1,1.1279363E-1,-5.7295066E-1,-1.0981165E-2,-3.7815064E-1,-1.0058971E-2,-1.782484E-1,1.7389011E-1,-6.250575E-2,6.6527337E-1,-7.1737275E-2,7.355433E-1,3.4369275E-1,6.5260553E-1,3.8220742E-1,7.493912E-1,5.348896E-1,9.261567E-1,3.1593657E-1,8.123464E-1,1.1454787E0,1.5758483E-1,-6.9389485E-2,1.0295424E0,1.2641941E0,1.6240271E0,-6.2007256E-2,-4.656463E-2,-3.6687795E-2,5.3492895E-5,-3.9477263E-2,-2.4181018E-2,4.2316806E-2,-2.0678198E-2,-4.01703E-2,-1.8796949E-2,6.814059E-2,-1.6225288E-2,-2.7075116E-2,-8.108898E-3,-6.282066E-3,2.3981707E-2,-3.1571668E-2,-9.291677E-3,1.7162776E-2,-1.537881E-2,-2.4699485E-2,-6.9015794E-3,-2.4862466E-3,3.052175E-2,3.9040956E-3,-2.4928015E-2,4.7515165E-3,2.4119737E-2,4.7446884E-2,2.215392E-2,-2.6521463E-2,-4.1092638E-4,3.147153E-2,7.873233E-2,1.3781774E-2,2.3782713E-2,2.8895676E-2,5.8880717E-2,6.8249195E-3,3.3388447E-2,1.8063175E-2,4.212822E-2,1.8162327E-2,5.306849E-2,4.4799738E-2,7.0385374E-2,2.4157984E-2,-7.3620684E-2,2.1248048E-2,5.7337757E-2,2.7116023E-3,5.80346E-2,-5.757146E-2,4.5042295E-2,6.861927E-2,-9.263626E-3,5.8580488E-2,7.6444805E-2,3.673577E-2,8.321975E-2],"categories":[],"categories_nodes":[],"categories_segments":[],"categories_sizes":[],"default_left":[0,0,0,0,0,0,0,0,0,0,0,0,0,0,0,0,0,0,0,0,0,0,0,0,0,0,0,0,0,0,0,0,0,0,0,0,0,0,0,0,0,0,0,0,0,0,0,0,0,0,0,0,0,0,0,0,0,0,0,0,0,0,0,0,0,0,0,0,0,0,0,0,0,0,0,0,0,0,0,0,0,0,0,0,0,0,0,0,0,0,0,0,0,0,0,0,0,0,0,0,0,0,0,0,0,0,0,0,0,0,0,0,0,0,0,0,0,0,0,0,0,0,0],"id":6,"left_children":[1,3,5,7,9,11,13,15,17,19,21,23,25,27,29,31,33,35,37,39,41,43,45,47,49,51,53,55,57,59,61,63,65,67,69,71,73,75,77,79,81,83,85,87,89,-1,91,93,95,97,99,101,103,105,107,109,111,113,115,-1,117,119,121,-1,-1,-1,-1,-1,-1,-1,-1,-1,-1,-1,-1,-1,-1,-1,-1,-1,-1,-1,-1,-1,-1,-1,-1,-1,-1,-1,-1,-1,-1,-1,-1,-1,-1,-1,-1,-1,-1,-1,-1,-1,-1,-1,-1,-1,-1,-1,-1,-1,-1,-1,-1,-1,-1,-1,-1,-1,-1,-1,-1],"loss_changes":[3.1949668E3,4.4743726E2,3.6000403E2,2.11401E2,2.2173943E2,2.0713257E2,3.0191467E1,6.692407E1,4.7853073E1,1.1099451E2,4.1439804E1,1.08981995E2,3.522931E1,2.1775146E1,1.0095581E1,4.137732E1,3.43562E1,2.4027466E1,2.177085E1,3.8431244E1,5.8940502E1,2.7911732E1,1.1998795E1,5.0763813E1,4.720862E1,2.6979462E1,1.5329773E1,8.088772E0,3.4974976E0,1.5068951E1,8.067688E0,1.7891663E1,2.4879608E1,2.564447E1,1.4541252E1,1.5327972E1,2.3893084E1,1.4671467E1,2.1545704E1,2.893277E1,1.4340292E1,1.9277565E1,2.8644888E1,2.3645905E1,2.5215082E1,0E0,9.822472E0,2.3895872E1,6.6722183E0,2.9283478E1,2.2257507E1,2.677005E1,1.5254593E1,1.0712883E1,9.308838E0,1.8055758E1,1.0422493E1,3.491516E0,5.8977733E0,0E0,3.7882242E0,5.591034E0,2.4606628E0,0E0,0E0,0E0,0E0,0E0,0E0,0E0,0E0,0E0,0E0,0E0,0E0,0E0,0E0,0E0,0E0,0E0,0E0,0E0,0E0,0E0,0E0,0E0,0E0,0E0,0E0,0E0,0E0,0E0,0E0,0E0,0E0,0E0,0E0,0E0,0E0,0E0,0E0,0E0,0E0,0E0,0E0,0E0,0E0,0E0,0E0,0E0,0E0,0E0,0E0,0E0,0E0,0E0,0E0,0E0,0E0,0E0,0E0,0E0,0E0],"parents":[2147483647,0,0,1,1,2,2,3,3,4,4,5,5,6,6,7,7,8,8,9,9,10,10,11,11,12,12,13,13,14,14,15,15,16,16,17,17,18,18,19,19,20,20,21,21,22,22,23,23,24,24,25,25,26,26,27,27,28,28,29,29,30,30,31,31,32,32,33,33,34,34,35,35,36,36,37,37,38,38,39,39,40,40,41,41,42,42,43,43,44,44,46,46,47,47,48,48,49,49,50,50,51,51,52,52,53,53,54,54,55,55,56,56,57,57,58,58,60,60,61,61,62,62],"right_children":[2,4,6,8,10,12,14,16,18,20,22,24,26,28,30,32,34,36,38,40,42,44,46,48,50,52,54,56,58,60,62,64,66,68,70,72,74,76,78,80,82,84,86,88,90,-1,92,94,96,98,100,102,104,106,108,110,112,114,116,-1,118,120,122,-1,-1,-1,-1,-1,-1,-1,-1,-1,-1,-1,-1,-1,-1,-1,-1,-1,-1,-1,-1,-1,-1,-1,-1,-1,-1,-1,-1,-1,-1,-1,-1,-1,-1,-1,-1,-1,-1,-1,-1,-1,-1,-1,-1,-1,-1,-1,-1,-1,-1,-1,-1,-1,-1,-1,-1,-1,-1,-1,-1],"split_conditions":[6.036E1,4.725E1,8.949E1,1.13E0,1.21E0,1.71E0,9.4E-1,2.72E-1,4.1E-1,5.57E-1,4.66E-1,6.75E-1,9.83E-1,1.414E0,2.147206E0,5.69E-1,2.75E2,2.41E0,2.93E0,4.42E-1,6E0,2.852311E0,1.6591728E6,2.3208014E1,1.397E0,2.63E0,2.644E1,8.91234E0,8.5E-1,1.95E0,3.53E0,3.389E1,6.9E-1,5.042796E0,2.73E-1,5.258999E2,2.43E0,2.4623885E0,3.104E1,1.3676275E1,3E0,8.707527E0,1.333E0,2.339629E0,3.3E0,-6.250575E-2,4.85E-1,5E0,8.39E1,7.542E1,7.4E-1,6.3582745E0,6.38E1,1.2117108E1,1.72E0,3.304E1,8E0,1.6374774E0,2.839E1,-6.9389485E-2,1.9787384E0,2.133E0,9.06E1,-6.2007256E-2,-4.656463E-2,-3.6687795E-2,5.3492895E-5,-3.9477263E-2,-2.4181018E-2,4.2316806E-2,-2.0678198E-2,-4.01703E-2,-1.8796949E-2,6.814059E-2,-1.6225288E-2,-2.7075116E-2,-8.108898E-3,-6.282066E-3,2.3981707E-2,-3.1571668E-2,-9.291677E-3,1.7162776E-2,-1.537881E-2,-2.4699485E-2,-6.9015794E-3,-2.4862466E-3,3.052175E-2,3.9040956E-3,-2.4928015E-2,4.7515165E-3,2.4119737E-2,4.7446884E-2,2.215392E-2,-2.6521463E-2,-4.1092638E-4,3.147153E-2,7.873233E-2,1.3781774E-2,2.3782713E-2,2.8895676E-2,5.8880717E-2,6.8249195E-3,3.3388447E-2,1.8063175E-2,4.212822E-2,1.8162327E-2,5.306849E-2,4.4799738E-2,7.0385374E-2,2.4157984E-2,-7.3620684E-2,2.1248048E-2,5.7337757E-2,2.7116023E-3,5.80346E-2,-5.757146E-2,4.5042295E-2,6.861927E-2,-9.263626E-3,5.8580488E-2,7.6444805E-2,3.673577E-2,8.321975E-2],"split_indices":[4,4,4,5,5,5,5,2,3,3,2,3,3,3,9,3,14,5,5,2,12,9,6,9,3,5,0,9,5,3,5,4,5,9,2,8,5,9,0,9,13,9,3,9,5,0,2,12,4,4,2,9,4,9,3,0,12,9,0,0,9,3,4,0,0,0,0,0,0,0,0,0,0,0,0,0,0,0,0,0,0,0,0,0,0,0,0,0,0,0,0,0,0,0,0,0,0,0,0,0,0,0,0,0,0,0,0,0,0,0,0,0,0,0,0,0,0,0,0,0,0,0,0],"split_type":[0,0,0,0,0,0,0,0,0,0,0,0,0,0,0,0,0,0,0,0,0,0,0,0,0,0,0,0,0,0,0,0,0,0,0,0,0,0,0,0,0,0,0,0,0,0,0,0,0,0,0,0,0,0,0,0,0,0,0,0,0,0,0,0,0,0,0,0,0,0,0,0,0,0,0,0,0,0,0,0,0,0,0,0,0,0,0,0,0,0,0,0,0,0,0,0,0,0,0,0,0,0,0,0,0,0,0,0,0,0,0,0,0,0,0,0,0,0,0,0,0,0,0],"sum_hessian":[1.676593E4,9.57437E3,7.19156E3,4.8138193E3,4.760551E3,6.4221885E3,7.693714E2,3.2542014E3,1.5596178E3,3.2727478E3,1.4878027E3,4.7625493E3,1.6596392E3,3.5731342E2,4.12058E2,1.4185426E3,1.8356588E3,6.680352E2,8.915825E2,1.4166348E3,1.856113E3,1.3238414E3,1.6396129E2,9.043788E2,3.8581707E3,8.110733E2,8.485658E2,1.4021382E2,2.1709958E2,1.0222274E1,4.0183575E2,9.7986865E2,4.3867395E2,1.3301373E3,5.0552142E2,3.8168768E2,2.8634756E2,6.4694366E2,2.446389E2,1.2821498E3,1.3448505E2,6.9451086E2,1.1616022E3,2.8651953E2,1.0373219E3,2.4495533E0,1.6151173E2,8.193119E2,8.506691E1,3.2742246E3,5.8394617E2,3.818287E2,4.292446E2,1.2181542E2,7.2675037E2,5.6997482E1,8.321635E1,2.1310388E2,3.9957008E0,2.737191E0,7.485083E0,3.002296E2,1.01606125E2,2.7505408E2,7.048146E2,3.8638107E2,5.2292854E1,9.328163E2,3.973211E2,8.432089E0,4.9708932E2,2.5174225E2,1.2994543E2,7.6799445E0,2.786676E2,1.26343956E2,5.205997E2,1.4866728E2,9.597162E1,1.1133259E3,1.6882384E2,6.1215427E1,7.326962E1,4.6778375E2,2.2672711E2,1.0926714E3,6.893072E1,1.5957529E2,1.2694426E2,8.271853E2,2.1013661E2,6.950619E1,9.200555E1,9.8762344E1,7.2054956E2,7.70707E1,7.9962034E0,2.162193E3,1.1120315E3,5.1305554E2,7.089064E1,2.0602995E2,1.7579875E2,8.404004E1,3.4520456E2,9.313991E1,2.8675516E1,6.866055E2,4.0144886E1,5.2790993E1,4.2064924E0,3.960636E1,4.360998E1,2.9928231E0,2.1011105E2,1.2482152E0,2.7474856E0,5.736446E0,1.7486368E0,2.2645055E2,7.3779076E1,5.24557E0,9.636056E1],"tree_param":{"num_deleted":"0","num_feature":"15","num_nodes":"123","size_leaf_vector":"1"}},{"base_weights":[9.108693E-4,-3.9111486E-1,4.559518E-1,-5.549073E-1,-1.0499593E-1,3.6171946E-1,9.576227E-1,-7.223874E-1,-3.1960788E-1,-2.8430295E-1,1.1599127E-1,2.6807576E-1,6.3166696E-1,8.024827E-1,1.2586967E0,-8.818898E-1,-5.008206E-1,-3.9244908E-1,-5.142977E-3,-3.8186836E-1,-6.3697316E-2,2.7681177E-2,4.5164394E-1,8.810225E-2,3.9115873E-1,4.7309777E-1,7.8602463E-1,5.646073E-1,9.601498E-1,1.0801016E0,1.4259777E0,-9.6600604E-1,-6.298986E-1,-5.2859205E-1,3.2862404E-1,-6.000037E-1,-3.1798598E-1,-1.0853432E-1,3.355203E-1,-5.0166154E-1,-1.04853444E-1,-3.8770753E-1,8.028331E-2,-1.1957195E-1,2.0500728E-1,1.8991868E-1,7.054301E-1,-1.8305494E-2,2.660189E-1,2.5757584E-1,4.6966866E-1,1.9769523E-1,5.5632424E-1,7.3745257E-1,1.1662912E0,5.913363E-1,-7.415893E-2,6.295267E-3,9.841631E-1,9.2504096E-1,1.3777351E0,1.3100554E0,7.88765E-2,-5.564296E-2,-4.1605044E-2,-1.08564515E-2,-3.6110103E-2,-3.2460917E-2,-2.1476148E-2,-1.699238E-2,4.501972E-2,-3.252865E-2,3.1886708E-2,-4.4186432E-2,-1.4971301E-2,-1.5730593E-2,6.312821E-3,2.3737995E-2,-1.9859979E-2,-2.9364228E-2,-6.334722E-3,-1.8585518E-2,1.235365E-2,-4.2861192E-3,-3.7746333E-2,4.1481596E-4,2.7695736E-2,-9.856179E-3,3.1678826E-2,-1.7353509E-2,1.2869966E-2,-1.0765072E-2,2.1826345E-2,5.289578E-3,4.411442E-2,-1.3356777E-2,4.4992617E-3,1.4823238E-2,-4.2151656E-2,1.0642247E-2,4.5186955E-2,2.4131013E-2,-2.0962594E-2,2.6943877E-2,-1.3206926E-3,-6.6938684E-3,2.9473364E-2,-7.2615556E-3,3.7618406E-2,6.8907947E-3,6.169643E-2,-6.6318475E-2,3.065907E-2,-3.2128457E-2,4.6724796E-2,5.5760343E-2,4.259296E-2,3.5684884E-2,5.7750452E-2,-1.8068677E-2,7.1784355E-2,4.42106E-2,7.2313294E-2],"categories":[],"categories_nodes":[],"categories_segments":[],"categories_sizes":[],"default_left":[0,0,0,0,0,0,0,0,0,0,0,0,0,0,0,0,0,0,0,0,0,0,0,0,0,0,0,0,0,0,0,0,0,0,0,0,0,0,0,0,0,0,0,0,0,0,0,0,0,0,0,0,0,0,0,0,0,0,0,0,0,0,0,0,0,0,0,0,0,0,0,0,0,0,0,0,0,0,0,0,0,0,0,0,0,0,0,0,0,0,0,0,0,0,0,0,0,0,0,0,0,0,0,0,0,0,0,0,0,0,0,0,0,0,0,0,0,0,0,0,0,0,0],"id":7,"left_children":[1,3,5,7,9,11,13,15,17,19,21,23,25,27,29,31,33,35,37,39,41,43,45,47,49,51,53,55,57,59,61,63,65,67,69,71,73,75,77,79,81,83,85,87,89,91,93,95,97,99,101,103,105,107,109,111,-1,113,115,117,119,121,-1,-1,-1,-1,-1,-1,-1,-1,-1,-1,-1,-1,-1,-1,-1,-1,-1,-1,-1,-1,-1,-1,-1,-1,-1,-1,-1,-1,-1,-1,-1,-1,-1,-1,-1,-1,-1,-1,-1,-1,-1,-1,-1,-1,-1,-1,-1,-1,-1,-1,-1,-1,-1,-1,-1,-1,-1,-1,-1,-1,-1],"loss_changes":[2.9869739E3,4.2148267E2,3.6599194E2,2.2518542E2,1.298388E2,1.6478784E2,5.6199585E1,1.176239E2,5.4520203E1,3.8907043E1,4.3504448E1,1.0732529E2,4.07464E1,2.9877075E1,1.0850769E1,4.053723E1,3.2437775E1,2.9677673E1,1.5839373E1,4.1558487E1,2.5962404E1,3.0402248E1,2.0173756E1,3.7294144E1,3.006128E1,1.8940979E1,1.4835144E1,1.870578E1,1.1133514E1,8.173416E0,1.6408997E0,2.765564E1,1.8461838E1,1.5921814E1,1.7885551E1,3.2283173E1,1.4692261E1,1.6730698E1,1.08715515E1,2.8021896E1,3.5761887E1,1.891869E1,1.3144957E1,3.7284668E1,1.5366066E1,1.5271706E1,1.6329102E1,3.3260918E1,2.514259E1,3.066272E1,2.1056702E1,1.4881411E1,1.4667145E1,1.006543E1,6.4055634E0,1.4312988E1,0E0,8.399593E0,7.274811E0,5.865204E0,7.380005E0,5.9991455E0,0E0,0E0,0E0,0E0,0E0,0E0,0E0,0E0,0E0,0E0,0E0,0E0,0E0,0E0,0E0,0E0,0E0,0E0,0E0,0E0,0E0,0E0,0E0,0E0,0E0,0E0,0E0,0E0,0E0,0E0,0E0,0E0,0E0,0E0,0E0,0E0,0E0,0E0,0E0,0E0,0E0,0E0,0E0,0E0,0E0,0E0,0E0,0E0,0E0,0E0,0E0,0E0,0E0,0E0,0E0,0E0,0E0,0E0,0E0,0E0,0E0],"parents":[2147483647,0,0,1,1,2,2,3,3,4,4,5,5,6,6,7,7,8,8,9,9,10,10,11,11,12,12,13,13,14,14,15,15,16,16,17,17,18,18,19,19,20,20,21,21,22,22,23,23,24,24,25,25,26,26,27,27,28,28,29,29,30,30,31,31,32,32,33,33,34,34,35,35,36,36,37,37,38,38,39,39,40,40,41,41,42,42,43,43,44,44,45,45,46,46,47,47,48,48,49,49,50,50,51,51,52,52,53,53,54,54,55,55,57,57,58,58,59,59,60,60,61,61],"right_children":[2,4,6,8,10,12,14,16,18,20,22,24,26,28,30,32,34,36,38,40,42,44,46,48,50,52,54,56,58,60,62,64,66,68,70,72,74,76,78,80,82,84,86,88,90,92,94,96,98,100,102,104,106,108,110,112,-1,114,116,118,120,122,-1,-1,-1,-1,-1,-1,-1,-1,-1,-1,-1,-1,-1,-1,-1,-1,-1,-1,-1,-1,-1,-1,-1,-1,-1,-1,-1,-1,-1,-1,-1,-1,-1,-1,-1,-1,-1,-1,-1,-1,-1,-1,-1,-1,-1,-1,-1,-1,-1,-1,-1,-1,-1,-1,-1,-1,-1,-1,-1,-1,-1],"split_conditions":[5.868E1,9.3E-1,8.524E1,3.36E-1,4.784E1,1.69E0,1.81E0,5.042796E0,4.37E-1,9E0,3.16E0,6.731E1,6.998E1,8.949E1,9.34E1,2.75E2,8.097254E0,6.1E1,4.92E-1,2.72E0,4.8420428E2,1.83E2,5.353E1,1.5E-1,1.83E2,2.09E0,4.16E0,1.73E0,1.8754308E0,7.4E-1,2.3827011E1,2.77E-1,2.656E1,2.73E-1,5.35532E2,5.0814886E0,4.636645E2,1.6086631E0,2.4690715E2,7.9346414E0,2.92E-1,3.054E1,3.56E-1,5.6708264E0,2.593E1,5E0,2.9329667E0,7E0,1.2E1,1.0368938E1,1.6E0,1.6362386E0,6.4580694E5,2.526E1,7.112E1,2.512E1,-7.415893E-2,2.5051443E2,2.957E1,1.4299564E1,6.455039E5,1.6926123E2,7.88765E-2,-5.564296E-2,-4.1605044E-2,-1.08564515E-2,-3.6110103E-2,-3.2460917E-2,-2.1476148E-2,-1.699238E-2,4.501972E-2,-3.252865E-2,3.1886708E-2,-4.4186432E-2,-1.4971301E-2,-1.5730593E-2,6.312821E-3,2.3737995E-2,-1.9859979E-2,-2.9364228E-2,-6.334722E-3,-1.8585518E-2,1.235365E-2,-4.2861192E-3,-3.7746333E-2,4.1481596E-4,2.7695736E-2,-9.856179E-3,3.1678826E-2,-1.7353509E-2,1.2869966E-2,-1.0765072E-2,2.1826345E-2,5.289578E-3,4.411442E-2,-1.3356777E-2,4.4992617E-3,1.4823238E-2,-4.2151656E-2,1.0642247E-2,4.5186955E-2,2.4131013E-2,-2.0962594E-2,2.6943877E-2,-1.3206926E-3,-6.6938684E-3,2.9473364E-2,-7.2615556E-3,3.7618406E-2,6.8907947E-3,6.169643E-2,-6.6318475E-2,3.065907E-2,-3.2128457E-2,4.6724796E-2,5.5760343E-2,4.259296E-2,3.5684884E-2,5.7750452E-2,-1.8068677E-2,7.1784355E-2,4.42106E-2,7.2313294E-2],"split_indices":[4,5,4,2,4,5,5,9,2,12,5,4,4,4,4,14,10,14,2,5,8,14,4,5,14,5,5,5,9,2,9,2,0,2,8,10,8,10,11,9,2,0,2,10,0,12,9,12,12,10,5,10,7,0,4,0,0,11,0,9,7,11,0,0,0,0,0,0,0,0,0,0,0,0,0,0,0,0,0,0,0,0,0,0,0,0,0,0,0,0,0,0,0,0,0,0,0,0,0,0,0,0,0,0,0,0,0,0,0,0,0,0,0,0,0,0,0,0,0,0,0,0,0],"split_type":[0,0,0,0,0,0,0,0,0,0,0,0,0,0,0,0,0,0,0,0,0,0,0,0,0,0,0,0,0,0,0,0,0,0,0,0,0,0,0,0,0,0,0,0,0,0,0,0,0,0,0,0,0,0,0,0,0,0,0,0,0,0,0,0,0,0,0,0,0,0,0,0,0,0,0,0,0,0,0,0,0,0,0,0,0,0,0,0,0,0,0,0,0,0,0,0,0,0,0,0,0,0,0,0,0,0,0,0,0,0,0,0,0,0,0,0,0,0,0,0,0,0,0],"sum_hessian":[1.6742277E4,8.993962E3,7.748315E3,5.7190684E3,3.2748938E3,6.524494E3,1.2238206E3,3.3398086E3,2.3792598E3,1.807786E3,1.4671078E3,4.8455767E3,1.6789176E3,8.100674E2,4.137532E2,1.9401471E3,1.3996615E3,1.9315878E3,4.476719E2,1.2529314E3,5.5485455E2,1.162371E3,3.0473688E2,1.9686731E3,2.8769038E3,8.301659E2,8.4875165E2,3.2472684E2,4.8534055E2,2.0371591E2,2.1003731E2,1.4524701E3,4.8767697E2,1.3546672E3,4.4994217E1,5.0814694E2,1.4234409E3,3.439611E2,1.0371083E2,8.741154E2,3.7881604E2,1.7018407E2,3.846705E2,6.352115E2,5.271594E2,1.5088261E2,1.5385426E2,1.2324631E3,7.3620996E2,1.0665219E3,1.810382E3,1.9343861E2,6.367273E2,7.552249E2,9.352674E1,3.2124496E2,3.4818575E0,1.1949395E1,4.7339117E2,1.3663829E2,6.707763E1,1.2447247E2,8.556483E1,6.892561E2,7.63214E2,8.973693E1,3.9794003E2,6.0836743E2,7.4629987E2,2.0930014E1,2.4064201E1,4.8865668E2,1.9490286E1,4.373392E1,1.3797069E3,1.8300037E2,1.6096071E2,8.744552E1,1.6265312E1,7.111576E2,1.6295778E2,2.1541562E2,1.6340042E2,9.406363E1,7.612044E1,3.348017E2,4.9868816E1,5.7657947E2,5.8632072E1,4.5203747E1,4.8195566E2,5.713191E1,9.37507E1,3.540651E1,1.1844776E2,3.7327844E2,8.5918463E2,7.172525E2,1.8957436E1,9.987148E2,6.780701E1,1.7848339E3,2.5548052E1,7.6131676E1,1.1730694E2,2.9035015E1,6.0769226E2,1.2404481E1,7.4282043E2,5.958655E0,8.7568085E1,2.9455903E0,3.1829938E2,7.2140765E0,4.7353187E0,2.340959E2,2.3929527E2,7.334075E1,6.329753E1,1.9942875E0,6.5083336E1,3.1980707E1,9.249177E1],"tree_param":{"num_deleted":"0","num_feature":"15","num_nodes":"123","size_leaf_vector":"1"}},{"base_weights":[-9.965034E-3,-3.3129987E-1,4.547843E-1,-5.147343E-1,-9.660665E-2,3.7658024E-1,9.607657E-1,-6.6303146E-1,-2.1983604E-1,-2.023757E-1,2.1997054E-1,2.8194767E-1,6.59355E-1,7.371514E-1,1.1796649E0,-8.6917853E-1,-5.2534425E-1,-2.885067E-1,3.2975966E-1,-4.491169E-1,-5.4895774E-2,3.1520292E-2,3.5935628E-1,2.5215864E-1,8.83362E-1,5.883987E-1,1.0700094E0,5.8289677E-1,1.1021512E0,1.1074749E0,1.5175902E0,-1.1241815E0,-7.435863E-1,-5.789176E-1,-7.662987E-2,-4.185739E-1,-1.4691326E-2,-1.8934315E-1,4.6516487E-1,-5.8593583E-1,-2.594646E-1,-2.868909E-1,1.5586348E-2,-4.7627855E-2,8.63989E-1,7.94237E-2,4.5468864E-1,7.17939E-2,3.5848415E-1,9.031545E-1,-5.361783E-1,2.2277133E-1,6.588859E-1,6.371248E-1,1.2366576E0,2.6040557E-1,8.1553453E-1,-1.879644E-2,1.1301887E0,1.0331448E0,1.3151498E0,5.9681865E-3,1.5386094E0,-5.8346596E-2,-2.1410031E-2,-4.9423404E-2,-3.2579657E-2,-4.5857463E-2,-2.627033E-2,-1.0270209E-2,1.4697418E-2,-3.2080982E-2,-1.4501812E-2,-1.567558E-2,8.725522E-3,2.8940896E-2,-2.2396447E-2,7.2838835E-2,1.9576294E-2,-4.0400665E-2,-2.0177688E-2,-1.9621387E-2,3.2910213E-3,-1.9221917E-2,1.2089443E-2,-6.350683E-4,2.6739946E-2,-5.3392695E-3,3.6911353E-2,8.7963454E-2,2.5321761E-2,1.5094163E-2,-2.1752693E-2,-6.4912476E-3,2.4867812E-2,-2.6389077E-2,6.23115E-3,9.108689E-3,2.0513246E-2,3.371604E-2,5.0331343E-2,1.262891E-2,-5.4222394E-2,1.612161E-2,-3.8574383E-2,2.8324023E-2,4.5277856E-2,6.48665E-2,2.3732668E-2,6.316215E-2,-4.450293E-3,2.6186539E-2,-4.85421E-3,3.8092326E-2,7.81771E-2,4.532605E-2,6.4376645E-2,6.223656E-2,4.799841E-2,3.1498396E-3,6.839679E-2,7.7932365E-2,3.5913166E-2],"categories":[],"categories_nodes":[],"categories_segments":[],"categories_sizes":[],"default_left":[0,0,0,0,0,0,0,0,0,0,0,0,0,0,0,0,0,0,0,0,0,0,0,0,0,0,0,0,0,0,0,0,0,0,0,0,0,0,0,0,0,0,0,0,0,0,0,0,0,0,0,0,0,0,0,0,0,0,0,0,0,0,0,0,0,0,0,0,0,0,0,0,0,0,0,0,0,0,0,0,0,0,0,0,0,0,0,0,0,0,0,0,0,0,0,0,0,0,0,0,0,0,0,0,0,0,0,0,0,0,0,0,0,0,0,0,0,0,0,0,0,0,0],"id":8,"left_children":[1,3,5,7,9,11,13,15,17,19,21,23,25,27,29,31,33,35,37,39,41,43,45,47,49,51,53,55,57,59,61,63,65,67,69,71,73,75,77,79,81,83,85,87,89,91,93,95,97,99,101,103,105,107,109,111,113,-1,115,117,119,-1,121,-1,-1,-1,-1,-1,-1,-1,-1,-1,-1,-1,-1,-1,-1,-1,-1,-1,-1,-1,-1,-1,-1,-1,-1,-1,-1,-1,-1,-1,-1,-1,-1,-1,-1,-1,-1,-1,-1,-1,-1,-1,-1,-1,-1,-1,-1,-1,-1,-1,-1,-1,-1,-1,-1,-1,-1,-1,-1,-1,-1],"loss_changes":[2.4849995E3,4.2347632E2,2.6879346E2,2.4133203E2,1.4459937E2,1.5751184E2,4.3670715E1,1.0381372E2,6.988231E1,1.177495E2,2.8400024E1,7.8913635E1,4.2405457E1,2.4850677E1,9.49585E0,4.6228516E1,5.296295E1,5.8553055E1,1.4556826E1,3.1261963E1,3.3146507E1,3.0413696E1,1.6553787E1,8.071338E1,6.3300934E0,3.236566E1,1.4821182E1,2.3825127E1,5.9526215E0,4.525696E0,2.1070862E0,1.3870605E1,2.1603271E1,3.516797E1,1.1338724E1,3.177214E1,3.0050947E1,8.859453E0,1.1372238E1,2.8126846E1,2.2047413E1,2.4452187E1,2.285307E1,1.9692427E1,1.1937305E1,1.8344646E1,1.1624619E1,4.956338E1,2.4104279E1,4.188858E0,1.7825679E0,2.0602318E1,2.3583038E1,6.0567913E0,5.5810394E0,1.2828747E1,6.264763E0,0E0,3.4484406E0,3.223877E0,6.312805E0,0E0,1.4138794E-1,0E0,0E0,0E0,0E0,0E0,0E0,0E0,0E0,0E0,0E0,0E0,0E0,0E0,0E0,0E0,0E0,0E0,0E0,0E0,0E0,0E0,0E0,0E0,0E0,0E0,0E0,0E0,0E0,0E0,0E0,0E0,0E0,0E0,0E0,0E0,0E0,0E0,0E0,0E0,0E0,0E0,0E0,0E0,0E0,0E0,0E0,0E0,0E0,0E0,0E0,0E0,0E0,0E0,0E0,0E0,0E0,0E0,0E0,0E0,0E0],"parents":[2147483647,0,0,1,1,2,2,3,3,4,4,5,5,6,6,7,7,8,8,9,9,10,10,11,11,12,12,13,13,14,14,15,15,16,16,17,17,18,18,19,19,20,20,21,21,22,22,23,23,24,24,25,25,26,26,27,27,28,28,29,29,30,30,31,31,32,32,33,33,34,34,35,35,36,36,37,37,38,38,39,39,40,40,41,41,42,42,43,43,44,44,45,45,46,46,47,47,48,48,49,49,50,50,51,51,52,52,53,53,54,54,55,55,56,56,58,58,59,59,60,60,62,62],"right_children":[2,4,6,8,10,12,14,16,18,20,22,24,26,28,30,32,34,36,38,40,42,44,46,48,50,52,54,56,58,60,62,64,66,68,70,72,74,76,78,80,82,84,86,88,90,92,94,96,98,100,102,104,106,108,110,112,114,-1,116,118,120,-1,122,-1,-1,-1,-1,-1,-1,-1,-1,-1,-1,-1,-1,-1,-1,-1,-1,-1,-1,-1,-1,-1,-1,-1,-1,-1,-1,-1,-1,-1,-1,-1,-1,-1,-1,-1,-1,-1,-1,-1,-1,-1,-1,-1,-1,-1,-1,-1,-1,-1,-1,-1,-1,-1,-1,-1,-1,-1,-1,-1,-1],"split_conditions":[6.151E1,6E0,1.504E0,1.09E0,1.63E0,1.8E0,7.4E-1,4.304E1,4.1628294E0,4.828E1,5.65E-1,1.0368938E1,6.867276E0,3.9524288E0,2.9E0,2.83E-1,4.829137E0,2.72E0,1.5E0,5.65E-1,4.66E-1,4.32E0,3.44E-1,8.7E-1,3.491E1,6.66E-1,8.2E-1,6E-2,3.95E-1,2.413E0,1.566E0,3.33E-1,1.2632693E0,2.85E-1,3.37E-1,3.68E-1,2.92E-1,1.2743646E2,2.534E1,1.5548358E0,3.43E-1,4.53E-1,1.348E0,2.68767E2,4.006E1,1.6661421E6,9.8676605E1,1.22E2,7E0,7.03E-1,6.7E-1,3.389E1,3.45E0,1E0,1.6679602E6,5.0545874E2,4.16E0,-1.879644E-2,6.2763586E0,2.738E1,2.557E1,5.9681865E-3,3.444E1,-5.8346596E-2,-2.1410031E-2,-4.9423404E-2,-3.2579657E-2,-4.5857463E-2,-2.627033E-2,-1.0270209E-2,1.4697418E-2,-3.2080982E-2,-1.4501812E-2,-1.567558E-2,8.725522E-3,2.8940896E-2,-2.2396447E-2,7.2838835E-2,1.9576294E-2,-4.0400665E-2,-2.0177688E-2,-1.9621387E-2,3.2910213E-3,-1.9221917E-2,1.2089443E-2,-6.350683E-4,2.6739946E-2,-5.3392695E-3,3.6911353E-2,8.7963454E-2,2.5321761E-2,1.5094163E-2,-2.1752693E-2,-6.4912476E-3,2.4867812E-2,-2.6389077E-2,6.23115E-3,9.108689E-3,2.0513246E-2,3.371604E-2,5.0331343E-2,1.262891E-2,-5.4222394E-2,1.612161E-2,-3.8574383E-2,2.8324023E-2,4.5277856E-2,6.48665E-2,2.3732668E-2,6.316215E-2,-4.450293E-3,2.6186539E-2,-4.85421E-3,3.8092326E-2,7.81771E-2,4.532605E-2,6.4376645E-2,6.223656E-2,4.799841E-2,3.1498396E-3,6.839679E-2,7.7932365E-2,3.5913166E-2],"split_indices":[4,12,3,5,5,5,2,4,10,4,3,10,10,10,5,3,10,5,5,3,3,5,2,3,0,3,3,5,2,3,3,2,10,2,2,3,2,11,0,10,2,2,3,11,4,6,11,14,12,3,3,0,5,13,6,8,5,0,10,0,0,0,0,0,0,0,0,0,0,0,0,0,0,0,0,0,0,0,0,0,0,0,0,0,0,0,0,0,0,0,0,0,0,0,0,0,0,0,0,0,0,0,0,0,0,0,0,0,0,0,0,0,0,0,0,0,0,0,0,0,0,0,0],"split_type":[0,0,0,0,0,0,0,0,0,0,0,0,0,0,0,0,0,0,0,0,0,0,0,0,0,0,0,0,0,0,0,0,0,0,0,0,0,0,0,0,0,0,0,0,0,0,0,0,0,0,0,0,0,0,0,0,0,0,0,0,0,0,0,0,0,0,0,0,0,0,0,0,0,0,0,0,0,0,0,0,0,0,0,0,0,0,0,0,0,0,0,0,0,0,0,0,0,0,0,0,0,0,0,0,0,0,0,0,0,0,0,0,0,0,0,0,0,0,0,0,0,0,0],"sum_hessian":[1.6637854E4,9.836815E3,6.801038E3,5.5206914E3,4.3161235E3,5.8921035E3,9.0893445E2,3.6725884E3,1.8481029E3,3.2354983E3,1.0806254E3,4.416191E3,1.4759125E3,4.517851E2,4.5714938E2,1.4685474E3,2.204041E3,1.643257E3,2.0484595E2,1.2096495E3,2.0258488E3,4.5996988E2,6.206555E2,4.2091255E3,2.0706548E2,1.2605388E3,2.1537373E2,3.1939905E2,1.3238605E2,3.8020477E2,7.694459E1,4.8198068E2,9.8656665E2,1.9687015E3,2.3533948E2,1.1137007E3,5.2955634E2,4.2296303E1,1.6254965E2,7.0149066E2,5.0815884E2,4.7134027E2,1.5545085E3,4.2089545E2,3.9074444E1,1.581371E2,4.625184E2,1.5616698E3,2.6474558E3,2.0457684E2,2.4886253E0,2.044076E2,1.0561312E3,6.120672E1,1.54167E2,1.3473865E2,1.846604E2,2.2334833E0,1.3015256E2,2.8439142E2,9.581336E1,1.2384679E0,7.5706116E1,4.53451E2,2.8529694E1,2.6674857E2,7.1981805E2,2.6671472E2,1.7019868E3,1.7498032E2,6.035917E1,4.057057E2,7.0799493E2,2.0504951E2,3.2450684E2,1.0340417E1,3.1955887E1,9.938368E0,1.5261128E2,3.1477487E2,3.8671582E2,3.6056732E2,1.475915E2,3.981499E2,7.319037E1,1.4751168E3,7.93917E1,3.9223306E2,2.8662374E1,1.0032856E1,2.904159E1,1.1068866E2,4.7448433E1,3.132651E1,4.311919E2,1.2572974E2,1.4359401E3,6.020455E2,2.0454103E3,6.604107E1,1.3853578E2,1.2416577E0,1.2469676E0,1.8639932E2,1.8008266E1,7.7071173E2,2.8541946E2,1.0708321E1,5.0498398E1,1.5118224E2,2.9847813E0,7.732005E1,5.741859E1,1.7417738E2,1.0483013E1,5.6540535E1,7.361203E1,6.896703E1,2.1542438E2,3.9644616E0,9.18489E1,7.302247E1,2.6836526E0],"tree_param":{"num_deleted":"0","num_feature":"15","num_nodes":"123","size_leaf_vector":"1"}},{"base_weights":[1.9716446E-3,-3.7518716E-1,3.8347977E-1,-4.9140102E-1,-1.7255686E-3,2.8695926E-1,7.8458655E-1,-6.4467233E-1,-1.8603164E-1,-1.0030835E-1,6.2823975E-1,1.6473387E-1,4.779414E-1,6.4371604E-1,1.1448214E0,-8.207905E-1,-4.4518727E-1,-3.0389166E-1,2.1670073E-2,-3.0438605E-1,8.557333E-2,-2.8659055E-1,7.315365E-1,8.5120134E-2,3.9756563E-1,3.87543E-1,6.4396524E-1,4.8737732E-1,1.096925E0,9.551348E-1,1.2804755E0,-9.789733E-1,-7.181864E-1,-4.9567702E-1,-2.8380722E-1,-6.581745E-1,-1.9592127E-1,-5.756593E-2,4.5417678E-1,-3.8506243E-1,-4.61469E-2,-3.100644E-1,1.7481098E-1,2.2686018E-2,-9.1165584E-1,6.316717E-1,1.292593E0,5.0268978E-2,3.7812E-1,3.5135043E-1,7.675833E-1,3.0759126E-1,6.087447E-1,6.6361666E-1,-1.07779704E-1,2.3280716E-1,6.0621464E-1,8.7238884E-1,1.234617E0,6.700496E-1,1.1183847E0,-4.941236E-3,1.2888372E0,-5.183887E-2,-3.8292866E-2,-4.256436E-2,-3.171217E-2,-2.3395175E-2,-3.816129E-2,2.244592E-2,-1.6848681E-2,-5.249521E-2,-2.7621513E-2,-2.3996355E-2,-2.9291138E-3,-7.017386E-3,1.8442577E-2,2.8082758E-2,-2.8323088E-2,-2.7724206E-2,-9.831279E-3,-1.9583799E-2,1.3195737E-2,-3.8861424E-2,-7.839247E-3,3.3849855E-3,2.0672638E-2,2.740775E-2,-2.9101094E-2,-5.8253743E-2,2.133948E-2,3.871035E-2,1.9663528E-2,4.7374237E-2,8.190815E-2,-1.7643877E-3,7.379667E-3,1.4069269E-2,3.415291E-2,9.4864685E-3,2.2324827E-2,2.4211831E-2,5.6669958E-2,9.652695E-3,2.3240471E-2,1.7410345E-2,3.49288E-2,3.1727713E-2,5.7688065E-2,7.558272E-3,-7.2719626E-2,2.835031E-3,2.5840888E-2,5.7566065E-2,2.7696867E-2,-5.3212143E-2,4.5138035E-2,4.806432E-2,6.9368415E-2,3.9963946E-2,-9.790533E-3,6.251908E-2,3.297736E-2,5.979103E-2,7.4396476E-2],"categories":[],"categories_nodes":[],"categories_segments":[],"categories_sizes":[],"default_left":[0,0,0,0,0,0,0,0,0,0,0,0,0,0,0,0,0,0,0,0,0,0,0,0,0,0,0,0,0,0,0,0,0,0,0,0,0,0,0,0,0,0,0,0,0,0,0,0,0,0,0,0,0,0,0,0,0,0,0,0,0,0,0,0,0,0,0,0,0,0,0,0,0,0,0,0,0,0,0,0,0,0,0,0,0,0,0,0,0,0,0,0,0,0,0,0,0,0,0,0,0,0,0,0,0,0,0,0,0,0,0,0,0,0,0,0,0,0,0,0,0,0,0,0,0],"id":9,"left_children":[1,3,5,7,9,11,13,15,17,19,21,23,25,27,29,31,33,35,37,39,41,43,45,47,49,51,53,55,57,59,61,63,65,67,69,71,73,75,77,79,81,83,85,87,89,91,93,95,97,99,101,103,105,107,109,111,113,115,117,119,121,-1,123,-1,-1,-1,-1,-1,-1,-1,-1,-1,-1,-1,-1,-1,-1,-1,-1,-1,-1,-1,-1,-1,-1,-1,-1,-1,-1,-1,-1,-1,-1,-1,-1,-1,-1,-1,-1,-1,-1,-1,-1,-1,-1,-1,-1,-1,-1,-1,-1,-1,-1,-1,-1,-1,-1,-1,-1,-1,-1,-1,-1,-1,-1],"loss_changes":[2.3924666E3,3.6288867E2,3.1978992E2,2.983457E2,1.23361435E2,1.5548328E2,8.0594055E1,1.4878833E2,5.220884E1,6.518115E1,2.5609581E1,7.531962E1,3.877356E1,8.126135E1,1.033728E1,3.5872925E1,1.6097015E1,5.191442E1,2.651456E1,1.7043777E1,3.1816746E1,5.431425E0,1.2731308E1,3.092723E1,1.7438736E1,2.9630112E1,1.3590515E1,2.5880112E1,8.05246E0,8.151932E0,3.114502E0,1.0094482E1,1.4774597E1,1.0912323E1,1.8742912E1,1.2566162E1,4.070001E1,2.3142681E1,1.3458681E1,1.9807846E1,2.1110239E1,1.176003E1,1.8752064E1,6.578804E0,3.6479077E0,6.73687E0,2.69104E0,2.2567064E1,9.30621E0,1.4099861E1,1.1281616E1,2.224659E1,1.02087555E1,1.1973511E1,8.649013E0,1.3743272E1,1.605484E1,7.763542E0,6.20813E0,8.2282715E0,6.4506073E0,0E0,2.989563E0,0E0,0E0,0E0,0E0,0E0,0E0,0E0,0E0,0E0,0E0,0E0,0E0,0E0,0E0,0E0,0E0,0E0,0E0,0E0,0E0,0E0,0E0,0E0,0E0,0E0,0E0,0E0,0E0,0E0,0E0,0E0,0E0,0E0,0E0,0E0,0E0,0E0,0E0,0E0,0E0,0E0,0E0,0E0,0E0,0E0,0E0,0E0,0E0,0E0,0E0,0E0,0E0,0E0,0E0,0E0,0E0,0E0,0E0,0E0,0E0,0E0,0E0],"parents":[2147483647,0,0,1,1,2,2,3,3,4,4,5,5,6,6,7,7,8,8,9,9,10,10,11,11,12,12,13,13,14,14,15,15,16,16,17,17,18,18,19,19,20,20,21,21,22,22,23,23,24,24,25,25,26,26,27,27,28,28,29,29,30,30,31,31,32,32,33,33,34,34,35,35,36,36,37,37,38,38,39,39,40,40,41,41,42,42,43,43,44,44,45,45,46,46,47,47,48,48,49,49,50,50,51,51,52,52,53,53,54,54,55,55,56,56,57,57,58,58,59,59,60,60,62,62],"right_children":[2,4,6,8,10,12,14,16,18,20,22,24,26,28,30,32,34,36,38,40,42,44,46,48,50,52,54,56,58,60,62,64,66,68,70,72,74,76,78,80,82,84,86,88,90,92,94,96,98,100,102,104,106,108,110,112,114,116,118,120,122,-1,124,-1,-1,-1,-1,-1,-1,-1,-1,-1,-1,-1,-1,-1,-1,-1,-1,-1,-1,-1,-1,-1,-1,-1,-1,-1,-1,-1,-1,-1,-1,-1,-1,-1,-1,-1,-1,-1,-1,-1,-1,-1,-1,-1,-1,-1,-1,-1,-1,-1,-1,-1,-1,-1,-1,-1,-1,-1,-1,-1,-1,-1,-1],"split_conditions":[3.058E1,3.242118E0,8.212E1,1.09E0,9.619942E0,9E-1,1.125E2,1.953E1,2.59E0,1.3E-1,2.105375E1,6.485E1,7.139E1,1.7273165E1,3.9492197E0,1.134E1,2.2E-1,1.247E1,5.372E1,3.05E2,1.087E1,3.44E-1,2.65E0,4.08133E0,7.815E1,2.87E0,1.6697784E6,3.771861E0,1.2E0,2.050623E2,5.640417E1,2.3141768E0,1.4367795E0,5.808E1,1.797163E0,6.47322E5,1.3643913E0,4.43E0,2.5177211E2,1.3676275E1,6.509582E5,9.423104E0,2.34E0,1.6664451E6,2.947E1,1.9001694E2,7.579E1,6.403E1,5.34E-1,1.83E2,7.833E1,4.6994767E0,4.291E1,4.43E0,7.473E1,9.4E-1,4.148319E0,4.04E-1,5.3210864E2,1.8712006E2,5E0,-4.941236E-3,1.6376E2,-5.183887E-2,-3.8292866E-2,-4.256436E-2,-3.171217E-2,-2.3395175E-2,-3.816129E-2,2.244592E-2,-1.6848681E-2,-5.249521E-2,-2.7621513E-2,-2.3996355E-2,-2.9291138E-3,-7.017386E-3,1.8442577E-2,2.8082758E-2,-2.8323088E-2,-2.7724206E-2,-9.831279E-3,-1.9583799E-2,1.3195737E-2,-3.8861424E-2,-7.839247E-3,3.3849855E-3,2.0672638E-2,2.740775E-2,-2.9101094E-2,-5.8253743E-2,2.133948E-2,3.871035E-2,1.9663528E-2,4.7374237E-2,8.190815E-2,-1.7643877E-3,7.379667E-3,1.4069269E-2,3.415291E-2,9.4864685E-3,2.2324827E-2,2.4211831E-2,5.6669958E-2,9.652695E-3,2.3240471E-2,1.7410345E-2,3.49288E-2,3.1727713E-2,5.7688065E-2,7.558272E-3,-7.2719626E-2,2.835031E-3,2.5840888E-2,5.7566065E-2,2.7696867E-2,-5.3212143E-2,4.5138035E-2,4.806432E-2,6.9368415E-2,3.9963946E-2,-9.790533E-3,6.251908E-2,3.297736E-2,5.979103E-2,7.4396476E-2],"split_indices":[1,10,4,5,10,5,1,1,5,5,9,1,4,9,9,1,5,1,4,14,1,2,5,10,1,5,6,9,5,11,11,10,10,4,9,7,10,5,11,9,7,9,5,6,1,11,4,4,2,14,4,9,1,5,1,5,9,2,8,11,13,0,1,0,0,0,0,0,0,0,0,0,0,0,0,0,0,0,0,0,0,0,0,0,0,0,0,0,0,0,0,0,0,0,0,0,0,0,0,0,0,0,0,0,0,0,0,0,0,0,0,0,0,0,0,0,0,0,0,0,0,0,0,0,0],"split_type":[0,0,0,0,0,0,0,0,0,0,0,0,0,0,0,0,0,0,0,0,0,0,0,0,0,0,0,0,0,0,0,0,0,0,0,0,0,0,0,0,0,0,0,0,0,0,0,0,0,0,0,0,0,0,0,0,0,0,0,0,0,0,0,0,0,0,0,0,0,0,0,0,0,0,0,0,0,0,0,0,0,0,0,0,0,0,0,0,0,0,0,0,0,0,0,0,0,0,0,0,0,0,0,0,0,0,0,0,0,0,0,0,0,0,0,0,0,0,0,0,0,0,0,0,0],"sum_hessian":[1.662515E4,8.360238E3,8.264912E3,6.3758765E3,1.9843625E3,6.6632207E3,1.6016918E3,4.2444077E3,2.1314685E3,1.7165774E3,2.677851E2,4.0641165E3,2.599104E3,1.1534285E3,4.482634E2,2.2525752E3,1.9918323E3,1.3595378E3,7.719307E2,8.17936E2,8.986415E2,2.6988817E1,2.4079628E2,3.029563E3,1.0345533E3,1.6849817E3,9.141224E2,8.5913654E2,2.9429193E2,1.902607E2,2.580027E2,8.828938E2,1.3696815E3,1.5155897E3,4.7624258E2,3.1636255E2,1.0431753E3,6.5314105E2,1.187897E2,6.2285803E2,1.9507793E2,1.6493272E2,7.3370874E2,1.8699957E1,8.28886E0,2.0621677E2,3.4579517E1,2.708562E3,3.2100095E2,9.2141785E2,1.1313553E2,1.2394001E3,4.4558154E2,8.909492E2,2.3173174E1,2.7436276E2,5.8477374E2,1.14656235E2,1.7963568E2,7.113728E1,1.1912342E2,1.4894546E0,2.565132E2,6.914778E2,1.9141606E2,5.261971E2,8.4348444E2,1.3755468E3,1.4004301E2,3.1714716E1,4.4452786E2,6.534888E1,2.5101369E2,3.39214E2,7.039613E2,5.475201E2,1.0562096E2,1.0787918E2,1.0910521E1,3.269542E2,2.959038E2,9.213762E1,1.0294031E2,3.974069E1,1.2519204E2,5.0729822E2,2.2641054E2,1.0055562E1,8.644394E0,7.078214E0,1.2106463E0,1.27649956E2,7.85668E1,1.9173471E1,1.5406047E1,1.4417625E3,1.2667996E3,2.4515417E2,7.584676E1,3.425446E2,5.788733E2,6.506355E1,4.8071976E1,7.183165E2,5.210836E2,1.1549303E2,3.300885E2,8.432448E2,4.77044E1,2.018036E1,2.9928124E0,1.7009286E2,1.04269905E2,4.9334023E1,5.3543976E2,1.2447611E0,1.13411476E2,6.701439E1,1.1262129E2,6.1965805E1,9.171477E0,9.117063E1,2.7952791E1,1.7960674E2,7.6906494E1],"tree_param":{"num_deleted":"0","num_feature":"15","num_nodes":"125","size_leaf_vector":"1"}},{"base_weights":[-3.7263571E-3,-3.8072848E-1,3.500193E-1,-5.621162E-1,-1.651545E-1,2.0751385E-1,6.080711E-1,-6.3713443E-1,-5.3838354E-2,-2.3318145E-1,3.1419027E-1,9.680437E-2,4.3483442E-1,5.268613E-1,1.072443E0,-7.9938537E-1,-4.3908006E-1,-2.309758E-1,3.938894E-1,-5.084753E-1,-1.14601575E-1,1.6071928E-1,7.0686466E-1,-4.5297008E-2,2.3938663E-1,3.165714E-1,6.0578644E-1,4.3150836E-1,8.851263E-1,8.954831E-1,1.1995133E0,-9.555405E-1,-6.6299075E-1,-6.207486E-1,-3.6979717E-1,-2.6558185E-1,6.6907483E-1,2.1080521E-1,8.079167E-1,-6.668729E-1,-1.1546335E-1,-1.6796048E-1,1.8345086E-1,3.048003E-2,5.423026E-1,-5.968463E-1,8.3478093E-1,-2.1131171E-1,4.2558942E-2,1.6368383E-1,4.2925835E-1,2.2374475E-1,4.9862593E-1,3.1215677E-1,6.711685E-1,3.3778632E-1,6.2812966E-1,6.790567E-1,1.0729979E0,6.1252576E-1,1.0751336E0,1.0093353E0,1.3411726E0,-5.1196974E-2,-3.358974E-2,-5.5292357E-2,-3.0612899E-2,-1.6686698E-2,-3.6721982E-2,-1.9066656E-2,6.262231E-2,-1.0825052E-2,-4.5909304E-2,9.1618024E-2,-1.03043085E-2,2.2906562E-2,-1.347817E-2,5.999996E-2,1.1606898E-2,-3.7697747E-2,-1.5330285E-2,-1.4100054E-2,1.9462924E-2,-1.295688E-2,6.440449E-4,-2.1043802E-2,1.3071214E-2,4.52361E-3,-7.759138E-2,1.3479798E-2,4.4655547E-2,7.049349E-2,-5.05446E-2,6.894485E-2,3.1041801E-2,-1.7298836E-3,-2.1643091E-2,4.423222E-4,2.3673855E-2,-5.3959223E-3,1.0834592E-2,8.261402E-3,2.8729886E-2,2.7571578E-2,8.121596E-3,2.618065E-2,-4.1707728E-2,-3.3239496E-3,3.5047036E-2,1.2023771E-2,3.571784E-2,1.2043783E-2,2.4574026E-2,2.2279626E-2,3.8197394E-2,1.3153712E-2,3.870383E-2,4.7102083E-2,6.307885E-2,3.556041E-2,-5.2141227E-2,6.188468E-2,3.714446E-2,5.4567277E-2,-1.0241318E-2,1.370793E-2,6.778572E-2],"categories":[],"categories_nodes":[],"categories_segments":[],"categories_sizes":[],"default_left":[0,0,0,0,0,0,0,0,0,0,0,0,0,0,0,0,0,0,0,0,0,0,0,0,0,0,0,0,0,0,0,0,0,0,0,0,0,0,0,0,0,0,0,0,0,0,0,0,0,0,0,0,0,0,0,0,0,0,0,0,0,0,0,0,0,0,0,0,0,0,0,0,0,0,0,0,0,0,0,0,0,0,0,0,0,0,0,0,0,0,0,0,0,0,0,0,0,0,0,0,0,0,0,0,0,0,0,0,0,0,0,0,0,0,0,0,0,0,0,0,0,0,0,0,0,0,0],"id":10,"left_children":[1,3,5,7,9,11,13,15,17,19,21,23,25,27,29,31,33,35,37,39,41,43,45,47,49,51,53,55,57,59,61,63,65,67,69,71,73,75,77,79,81,83,85,87,89,91,93,95,97,99,101,103,105,107,109,111,113,115,117,119,121,123,125,-1,-1,-1,-1,-1,-1,-1,-1,-1,-1,-1,-1,-1,-1,-1,-1,-1,-1,-1,-1,-1,-1,-1,-1,-1,-1,-1,-1,-1,-1,-1,-1,-1,-1,-1,-1,-1,-1,-1,-1,-1,-1,-1,-1,-1,-1,-1,-1,-1,-1,-1,-1,-1,-1,-1,-1,-1,-1,-1,-1,-1,-1,-1,-1],"loss_changes":[2.1994038E3,3.1208167E2,3.1275903E2,1.6526367E2,1.1907412E2,1.3794313E2,1.135686E2,1.2103613E2,4.4395866E1,1.04286896E2,2.7244526E1,7.474306E1,3.6107056E1,8.7685425E1,9.034058E0,4.3565674E1,2.120868E1,1.2664671E1,1.1861845E1,5.981125E1,3.558206E1,1.6268997E1,2.1723312E1,2.6965424E1,2.6395813E1,1.7858658E1,1.3864166E1,3.734378E1,2.021402E1,9.092651E0,5.6158447E0,1.8045471E1,2.428305E1,1.5051239E1,2.3598938E1,1.2189735E1,1.5778578E1,1.3360456E1,1.062907E1,2.1273895E1,2.3440214E1,3.1273876E1,1.6126833E1,2.343232E1,7.7308674E0,1.13584175E1,1.2684814E1,2.5032276E1,1.7565475E1,1.8999142E1,2.002237E1,1.4096531E1,1.2368271E1,1.9974817E1,1.09646E1,2.0470581E1,1.594043E1,1.0101112E1,5.7571106E0,1.3290289E1,5.3460846E0,1.1622665E1,1.8816223E0,0E0,0E0,0E0,0E0,0E0,0E0,0E0,0E0,0E0,0E0,0E0,0E0,0E0,0E0,0E0,0E0,0E0,0E0,0E0,0E0,0E0,0E0,0E0,0E0,0E0,0E0,0E0,0E0,0E0,0E0,0E0,0E0,0E0,0E0,0E0,0E0,0E0,0E0,0E0,0E0,0E0,0E0,0E0,0E0,0E0,0E0,0E0,0E0,0E0,0E0,0E0,0E0,0E0,0E0,0E0,0E0,0E0,0E0,0E0,0E0,0E0,0E0,0E0,0E0],"parents":[2147483647,0,0,1,1,2,2,3,3,4,4,5,5,6,6,7,7,8,8,9,9,10,10,11,11,12,12,13,13,14,14,15,15,16,16,17,17,18,18,19,19,20,20,21,21,22,22,23,23,24,24,25,25,26,26,27,27,28,28,29,29,30,30,31,31,32,32,33,33,34,34,35,35,36,36,37,37,38,38,39,39,40,40,41,41,42,42,43,43,44,44,45,45,46,46,47,47,48,48,49,49,50,50,51,51,52,52,53,53,54,54,55,55,56,56,57,57,58,58,59,59,60,60,61,61,62,62],"right_children":[2,4,6,8,10,12,14,16,18,20,22,24,26,28,30,32,34,36,38,40,42,44,46,48,50,52,54,56,58,60,62,64,66,68,70,72,74,76,78,80,82,84,86,88,90,92,94,96,98,100,102,104,106,108,110,112,114,116,118,120,122,124,126,-1,-1,-1,-1,-1,-1,-1,-1,-1,-1,-1,-1,-1,-1,-1,-1,-1,-1,-1,-1,-1,-1,-1,-1,-1,-1,-1,-1,-1,-1,-1,-1,-1,-1,-1,-1,-1,-1,-1,-1,-1,-1,-1,-1,-1,-1,-1,-1,-1,-1,-1,-1,-1,-1,-1,-1,-1,-1,-1,-1,-1,-1,-1,-1],"split_conditions":[2.947E1,4.5E-1,7.477E1,1.3676275E1,4.57471E0,1.2E0,1.125E2,1.953E1,8.95092E0,1.376E1,9.619942E0,6.403E1,9.78E-1,1.4941085E1,3.9492197E0,1.6808375E0,4.446E1,2.867E1,6.5550344E5,2.57E0,3.26E0,2.7E0,2.105375E1,6.75E-1,6.485E1,2.8E0,5.93E1,1.38E0,1.1E0,2.0370041E2,9.7E-1,6.51E-1,3.9E-2,3.813E1,1.38E0,6.308E1,5.023163E2,2.065E1,9.2E1,7.756667E0,1.52E2,1.52E2,1.6603849E6,6.787E1,6.51E-1,4.799E1,1.196E1,6.509582E5,3.9524288E0,1.3029599E2,1.83E2,2.2859495E0,2.0332653E1,2.3E0,6.4641294E5,7.375E1,5.0545874E2,7.833E1,9.2E1,1.9855666E2,4E0,6E0,1.4108635E0,-5.1196974E-2,-3.358974E-2,-5.5292357E-2,-3.0612899E-2,-1.6686698E-2,-3.6721982E-2,-1.9066656E-2,6.262231E-2,-1.0825052E-2,-4.5909304E-2,9.1618024E-2,-1.03043085E-2,2.2906562E-2,-1.347817E-2,5.999996E-2,1.1606898E-2,-3.7697747E-2,-1.5330285E-2,-1.4100054E-2,1.9462924E-2,-1.295688E-2,6.440449E-4,-2.1043802E-2,1.3071214E-2,4.52361E-3,-7.759138E-2,1.3479798E-2,4.4655547E-2,7.049349E-2,-5.05446E-2,6.894485E-2,3.1041801E-2,-1.7298836E-3,-2.1643091E-2,4.423222E-4,2.3673855E-2,-5.3959223E-3,1.0834592E-2,8.261402E-3,2.8729886E-2,2.7571578E-2,8.121596E-3,2.618065E-2,-4.1707728E-2,-3.3239496E-3,3.5047036E-2,1.2023771E-2,3.571784E-2,1.2043783E-2,2.4574026E-2,2.2279626E-2,3.8197394E-2,1.3153712E-2,3.870383E-2,4.7102083E-2,6.307885E-2,3.556041E-2,-5.2141227E-2,6.188468E-2,3.714446E-2,5.4567277E-2,-1.0241318E-2,1.370793E-2,6.778572E-2],"split_indices":[1,5,4,9,10,5,1,1,10,1,10,4,3,9,9,10,4,1,7,5,5,5,9,3,1,5,4,5,5,11,5,3,3,4,3,4,8,1,14,9,14,14,6,4,3,4,1,7,10,11,14,9,9,5,7,1,8,4,4,11,13,13,10,0,0,0,0,0,0,0,0,0,0,0,0,0,0,0,0,0,0,0,0,0,0,0,0,0,0,0,0,0,0,0,0,0,0,0,0,0,0,0,0,0,0,0,0,0,0,0,0,0,0,0,0,0,0,0,0,0,0,0,0,0,0,0,0],"split_type":[0,0,0,0,0,0,0,0,0,0,0,0,0,0,0,0,0,0,0,0,0,0,0,0,0,0,0,0,0,0,0,0,0,0,0,0,0,0,0,0,0,0,0,0,0,0,0,0,0,0,0,0,0,0,0,0,0,0,0,0,0,0,0,0,0,0,0,0,0,0,0,0,0,0,0,0,0,0,0,0,0,0,0,0,0,0,0,0,0,0,0,0,0,0,0,0,0,0,0,0,0,0,0,0,0,0,0,0,0,0,0,0,0,0,0,0,0,0,0,0,0,0,0,0,0,0,0],"sum_hessian":[1.6489875E4,7.982501E3,8.507375E3,4.3341035E3,3.6483977E3,5.4818853E3,3.0254893E3,3.7764697E3,5.5763385E2,3.1954272E3,4.5297034E2,3.6874514E3,1.7944338E3,2.5769622E3,4.4852716E2,2.074199E3,1.7022708E3,3.9990207E2,1.5773175E2,9.6102747E2,2.2344E3,3.266955E2,1.26274826E2,1.8471818E3,1.8402697E3,1.0623572E3,7.320767E2,2.037012E3,5.399502E2,1.9082657E2,2.577006E2,9.642479E2,1.1099509E3,4.677668E2,1.234504E3,3.8577435E2,1.4127715E1,1.1041503E2,4.7316723E1,6.844666E2,2.7656088E2,1.8954949E3,3.3890497E2,2.443691E2,8.232641E1,1.0955135E1,1.15319695E2,6.3876013E2,1.2084216E3,1.3170267E3,5.23243E2,7.050781E2,3.57279E2,1.3437503E2,5.977017E2,1.3813105E3,6.557014E2,2.597043E2,2.8024588E2,7.581856E1,1.1500801E2,1.134793E2,1.4422128E2,7.7485474E2,1.8939323E2,1.11947E2,9.9800397E2,1.338347E2,3.339321E2,1.2265469E3,7.957159E0,3.6002914E2,2.5745197E1,5.5958424E0,8.531872E0,7.291816E1,3.7496876E1,2.7503675E1,1.9813046E1,5.503467E2,1.341199E2,2.0827864E2,6.8282234E1,1.2598615E3,6.356334E2,3.8227554E1,3.0067743E2,2.3635083E2,8.018266E0,4.731433E1,3.5012077E1,1.4623923E0,9.4927435E0,3.100952E1,8.431017E1,3.5597858E2,2.8278152E2,1.1216879E3,8.673373E1,2.1489787E2,1.1021289E3,1.865267E2,3.3671625E2,1.0987215E2,5.95206E2,3.5129993E2,5.9790654E0,6.849597E1,6.587907E1,5.507151E1,5.426302E2,8.4872253E2,5.32588E2,2.8156464E2,3.741368E2,4.8992275E1,2.1071204E2,1.6893011E2,1.11315765E2,7.2091255E1,3.7273085E0,7.5394066E1,3.9613945E1,1.0639409E2,7.0852127E0,2.2060237E0,1.4201526E2],"tree_param":{"num_deleted":"0","num_feature":"15","num_nodes":"127","size_leaf_vector":"1"}},{"base_weights":[-2.8540837E-3,-3.2426843E-1,3.812863E-1,-4.6895614E-1,-8.025936E-2,3.1488064E-1,8.5509324E-1,-5.673596E-1,-6.782812E-2,-2.0204449E-1,1.7953867E-1,2.3468442E-1,5.573569E-1,7.1498793E-1,1.1168165E0,-6.755178E-1,-3.8756773E-1,-8.779901E-2,8.959012E-1,-2.910509E-1,1.0679625E-1,7.228768E-2,3.412637E-1,1.20924346E-1,3.5852602E-1,2.3297936E-1,6.3295203E-1,5.88043E-1,1.0076423E0,9.582931E-1,1.25953E0,-7.73543E-1,-4.0608078E-1,-4.278774E-1,8.58789E-2,-1.3430162E-1,3.112564E-1,1.1830255E0,-2.5742146E-1,-4.152045E-1,-7.8857765E-2,3.5875924E-2,8.9082247E-1,-1.4372307E-1,2.7203342E-1,-4.164426E-2,4.478624E-1,8.1027485E-2,5.951258E-1,3.1891224E-1,5.756155E-1,4.2484555E-1,3.154502E-2,6.00447E-1,1.2194982E0,5.350354E-1,1.4712191E0,4.7825864E-1,1.097602E0,9.9822366E-1,1.306009E-1,2.8540638E-1,1.2802186E0,-4.634468E-2,-2.7909458E-2,-2.1583732E-2,1.5681623E-2,-2.8228823E-2,-1.3858482E-2,-9.4609065E-3,2.4868332E-2,-5.6047593E-3,-4.0567342E-2,-6.1868962E-2,1.7961564E-2,2.7620131E-2,7.9537146E-2,7.5389855E-2,-6.419513E-2,-3.1687416E-2,-1.4311962E-2,-6.759837E-3,2.227014E-2,-2.8664691E-2,5.912691E-3,2.6639493E-3,5.968542E-2,-1.2213342E-2,1.1593043E-2,3.289746E-3,2.5665535E-2,4.352411E-3,-4.530732E-2,-9.870352E-3,2.7313495E-2,-4.012671E-3,9.370235E-3,8.239016E-2,2.6394853E-2,1.4849777E-2,3.6451254E-2,2.2345688E-2,4.701711E-2,6.491992E-2,1.7679306E-2,-3.5522487E-3,5.3009506E-2,2.684529E-2,3.947166E-2,4.987109E-2,7.1100496E-2,2.7837649E-2,-2.4144439E-2,-1.9559594E-2,8.309468E-2,-6.3021846E-2,3.2054745E-2,5.659656E-2,9.665323E-3,-1.7698457E-2,5.0819874E-2,-6.914726E-2,3.6782328E-2,-5.9495207E-2,5.7378974E-2,2.3028051E-2,6.494682E-2],"categories":[],"categories_nodes":[],"categories_segments":[],"categories_sizes":[],"default_left":[0,0,0,0,0,0,0,0,0,0,0,0,0,0,0,0,0,0,0,0,0,0,0,0,0,0,0,0,0,0,0,0,0,0,0,0,0,0,0,0,0,0,0,0,0,0,0,0,0,0,0,0,0,0,0,0,0,0,0,0,0,0,0,0,0,0,0,0,0,0,0,0,0,0,0,0,0,0,0,0,0,0,0,0,0,0,0,0,0,0,0,0,0,0,0,0,0,0,0,0,0,0,0,0,0,0,0,0,0,0,0,0,0,0,0,0,0,0,0,0,0,0,0,0,0,0,0],"id":11,"left_children":[1,3,5,7,9,11,13,15,17,19,21,23,25,27,29,31,33,35,37,39,41,43,45,47,49,51,53,55,57,59,61,63,65,67,69,71,73,75,77,79,81,83,85,87,89,91,93,95,97,99,101,103,105,107,109,111,113,115,117,119,121,123,125,-1,-1,-1,-1,-1,-1,-1,-1,-1,-1,-1,-1,-1,-1,-1,-1,-1,-1,-1,-1,-1,-1,-1,-1,-1,-1,-1,-1,-1,-1,-1,-1,-1,-1,-1,-1,-1,-1,-1,-1,-1,-1,-1,-1,-1,-1,-1,-1,-1,-1,-1,-1,-1,-1,-1,-1,-1,-1,-1,-1,-1,-1,-1,-1],"loss_changes":[2.0401683E3,3.1758203E2,2.3656897E2,2.2287817E2,1.06029236E2,1.2828229E2,3.3110046E1,8.7921265E1,2.1512115E1,6.2741425E1,1.8529675E1,6.989273E1,4.008069E1,2.188681E1,6.0470886E0,7.443347E1,3.2588654E1,2.0304848E1,7.8208733E0,4.6628677E1,2.838723E1,2.784516E1,1.741777E1,4.893154E1,2.0251556E1,1.2031193E1,2.4623108E1,1.9082169E1,8.126251E0,5.0283813E0,2.9710999E0,6.797681E1,1.4080818E1,3.2229492E1,1.5337627E1,1.4623014E1,8.933911E0,3.83992E0,1.1622007E1,3.1305618E1,1.9407265E1,2.3640818E1,1.068121E1,1.1773301E1,1.6644732E1,1.0508127E1,2.1286415E1,4.1004646E1,1.3337616E1,1.786612E1,1.6734543E1,9.471666E0,1.6233027E1,1.473114E1,1.678482E0,9.154968E0,8.98098E0,8.780275E0,4.5774536E0,4.0153503E0,8.649512E0,7.3817644E0,1.8845215E0,0E0,0E0,0E0,0E0,0E0,0E0,0E0,0E0,0E0,0E0,0E0,0E0,0E0,0E0,0E0,0E0,0E0,0E0,0E0,0E0,0E0,0E0,0E0,0E0,0E0,0E0,0E0,0E0,0E0,0E0,0E0,0E0,0E0,0E0,0E0,0E0,0E0,0E0,0E0,0E0,0E0,0E0,0E0,0E0,0E0,0E0,0E0,0E0,0E0,0E0,0E0,0E0,0E0,0E0,0E0,0E0,0E0,0E0,0E0,0E0,0E0,0E0,0E0,0E0],"parents":[2147483647,0,0,1,1,2,2,3,3,4,4,5,5,6,6,7,7,8,8,9,9,10,10,11,11,12,12,13,13,14,14,15,15,16,16,17,17,18,18,19,19,20,20,21,21,22,22,23,23,24,24,25,25,26,26,27,27,28,28,29,29,30,30,31,31,32,32,33,33,34,34,35,35,36,36,37,37,38,38,39,39,40,40,41,41,42,42,43,43,44,44,45,45,46,46,47,47,48,48,49,49,50,50,51,51,52,52,53,53,54,54,55,55,56,56,57,57,58,58,59,59,60,60,61,61,62,62],"right_children":[2,4,6,8,10,12,14,16,18,20,22,24,26,28,30,32,34,36,38,40,42,44,46,48,50,52,54,56,58,60,62,64,66,68,70,72,74,76,78,80,82,84,86,88,90,92,94,96,98,100,102,104,106,108,110,112,114,116,118,120,122,124,126,-1,-1,-1,-1,-1,-1,-1,-1,-1,-1,-1,-1,-1,-1,-1,-1,-1,-1,-1,-1,-1,-1,-1,-1,-1,-1,-1,-1,-1,-1,-1,-1,-1,-1,-1,-1,-1,-1,-1,-1,-1,-1,-1,-1,-1,-1,-1,-1,-1,-1,-1,-1,-1,-1,-1,-1,-1,-1,-1,-1,-1,-1,-1,-1],"split_conditions":[5.93E1,9.3E-1,1.504E0,2.917E1,2.575E1,1.78E0,1.95E0,5.73E-1,5.4761066E0,3.1722693E0,2.32E0,9.67E-1,6.7E-1,3.5346677E0,2.0623729E2,2.6852417E0,6.7E-1,1.175E0,4E-1,2.51E0,7.542657E0,1.690695E0,1.5302129E2,2.227786E1,2.4874779E2,6.506552E5,9.34E1,3.53E0,7.51E1,2.0162547E2,7.375E1,3.15E-1,8.097254E0,1.964912E0,4.9E1,2.7896863E2,4.6290958E2,5.523E1,5.53E-1,1.376E1,5.353E1,2.21E-1,3.87E-1,4.62E-1,1E1,1.4449918E2,3.77E-1,4.99E-1,1.13E-1,2.3208014E1,8.198427E0,3.16E-1,7.962E1,3.45E0,5.467177E2,3.4192624E0,4.851048E2,6.4641294E5,5.716803E2,1.8754308E0,7E0,6.506552E5,1.5711108E0,-4.634468E-2,-2.7909458E-2,-2.1583732E-2,1.5681623E-2,-2.8228823E-2,-1.3858482E-2,-9.4609065E-3,2.4868332E-2,-5.6047593E-3,-4.0567342E-2,-6.1868962E-2,1.7961564E-2,2.7620131E-2,7.9537146E-2,7.5389855E-2,-6.419513E-2,-3.1687416E-2,-1.4311962E-2,-6.759837E-3,2.227014E-2,-2.8664691E-2,5.912691E-3,2.6639493E-3,5.968542E-2,-1.2213342E-2,1.1593043E-2,3.289746E-3,2.5665535E-2,4.352411E-3,-4.530732E-2,-9.870352E-3,2.7313495E-2,-4.012671E-3,9.370235E-3,8.239016E-2,2.6394853E-2,1.4849777E-2,3.6451254E-2,2.2345688E-2,4.701711E-2,6.491992E-2,1.7679306E-2,-3.5522487E-3,5.3009506E-2,2.684529E-2,3.947166E-2,4.987109E-2,7.1100496E-2,2.7837649E-2,-2.4144439E-2,-1.9559594E-2,8.309468E-2,-6.3021846E-2,3.2054745E-2,5.659656E-2,9.665323E-3,-1.7698457E-2,5.0819874E-2,-6.914726E-2,3.6782328E-2,-5.9495207E-2,5.7378974E-2,2.3028051E-2,6.494682E-2],"split_indices":[4,5,3,1,1,5,3,3,10,10,5,3,3,10,11,10,5,3,2,5,10,10,11,9,11,7,4,5,4,11,1,2,10,10,4,11,8,4,3,1,4,2,3,2,12,11,3,2,3,9,9,2,4,5,8,10,8,7,8,9,12,7,9,0,0,0,0,0,0,0,0,0,0,0,0,0,0,0,0,0,0,0,0,0,0,0,0,0,0,0,0,0,0,0,0,0,0,0,0,0,0,0,0,0,0,0,0,0,0,0,0,0,0,0,0,0,0,0,0,0,0,0,0,0,0,0,0],"split_type":[0,0,0,0,0,0,0,0,0,0,0,0,0,0,0,0,0,0,0,0,0,0,0,0,0,0,0,0,0,0,0,0,0,0,0,0,0,0,0,0,0,0,0,0,0,0,0,0,0,0,0,0,0,0,0,0,0,0,0,0,0,0,0,0,0,0,0,0,0,0,0,0,0,0,0,0,0,0,0,0,0,0,0,0,0,0,0,0,0,0,0,0,0,0,0,0,0,0,0,0,0,0,0,0,0,0,0,0,0,0,0,0,0,0,0,0,0,0,0,0,0,0,0,0,0,0,0],"sum_hessian":[1.652183E4,8.995422E3,7.526409E3,5.6464053E3,3.3490166E3,6.602685E3,9.237241E2,4.5337783E3,1.1126266E3,2.2803042E3,1.0687124E3,4.963149E3,1.6395364E3,6.040806E2,3.1964352E2,2.8291047E3,1.7046737E3,1.0909287E3,2.169789E1,1.7701989E3,5.1010526E2,6.434461E2,4.252663E2,2.5878987E3,2.3752502E3,3.106451E2,1.3288912E3,4.2342184E2,1.8065878E2,1.550886E2,1.6455492E2,2.0730332E3,7.5607166E2,1.5710126E3,1.3366116E2,9.776634E2,1.13265305E2,1.7352228E1,4.345661E0,1.1161727E3,6.5402606E2,4.6874954E2,4.135572E1,3.092715E2,3.341746E2,9.27419E1,3.325244E2,2.3881433E3,1.9975519E2,2.0107959E3,3.644544E2,1.5853319E2,1.5211194E2,1.2610315E3,6.785971E1,4.009622E2,2.245966E1,2.7158176E1,1.535006E2,1.4775441E2,7.3341885E0,3.729861E0,1.6082506E2,1.2088928E3,8.641403E2,7.304946E2,2.557703E1,8.223533E2,7.486593E2,8.043027E1,5.323089E1,9.477439E2,2.9919508E1,2.6584332E0,1.1060687E2,7.73824E0,9.613989E0,1.4254482E0,2.920213E0,4.1277414E2,7.033986E2,5.912322E2,6.279388E1,5.5128067E1,4.136215E2,1.1295947E1,3.0059772E1,2.4423853E2,6.503299E1,1.8085576E2,1.5331883E2,8.150771E1,1.1234182E1,4.386837E1,2.8865604E2,9.4923395E2,1.4389095E3,1.0580102E1,1.8917508E2,1.9104258E3,1.0037008E2,2.7103802E2,9.341638E1,1.0658038E1,1.4787514E2,1.3916364E2,1.2948292E1,9.4660364E2,3.144279E2,3.519252E1,3.266719E1,3.9302988E2,7.932309E0,1.9882101E0,2.0471449E1,1.7484505E0,2.5409725E1,1.4764395E2,5.8566403E0,1.7144872E0,1.4603992E2,1.7273828E0,5.6068053E0,1.23554E0,2.4943209E0,4.1622963E0,1.5666275E2],"tree_param":{"num_deleted":"0","num_feature":"15","num_nodes":"127","size_leaf_vector":"1"}},{"base_weights":[-6.9591543E-3,-3.3998352E-1,3.289407E-1,-4.7893995E-1,-1.2528841E-1,2.7618057E-1,8.805427E-1,-6.368076E-1,-3.323265E-1,-1.889783E-1,5.2459353E-1,1.4564091E-1,4.1074362E-1,6.701288E-1,1.0007714E0,-8.9681107E-1,-5.4755753E-1,-4.7735995E-1,-2.658689E-1,-2.7587327E-1,-1.86267E-2,-2.920181E-2,7.006453E-1,8.821823E-2,3.2191607E-1,3.7996283E-1,7.364617E-1,6.41811E-2,7.8997236E-1,2.5361836E-1,1.022376E0,-1.1284906E0,-7.3764414E-1,-6.2183005E-1,-3.8905758E-1,-5.702063E-1,-1.583764E-1,-4.8982877E-1,-2.1038483E-1,-4.0997332E-1,-1.959081E-1,-2.4547262E-1,6.845695E-2,-7.9231286E-1,2.893903E-1,7.537308E-1,-2.2914873E-1,-1.7483461E-1,1.1611441E-1,-9.012921E-2,3.9402282E-1,1.3631947E-1,4.13422E-1,-6.1269242E-2,7.5420654E-1,4.97608E-1,-8.442864E-1,5.296992E-1,9.489219E-1,-7.072645E-2,6.4681333E-1,4.0549138E-1,1.0423273E0,-1.3829832E-2,-5.829088E-2,-3.856713E-2,3.1210197E-2,-3.463593E-2,-2.0226061E-2,-3.21142E-2,-1.240213E-2,-5.0226916E-2,-2.4968322E-2,-2.4324292E-2,9.981683E-3,-3.1106463E-2,-3.0135792E-3,-7.0499466E-3,-1.7784642E-2,-3.3923157E-2,-1.7092273E-2,-2.9503956E-2,-8.5967975E-3,-1.9875713E-2,5.1885E-3,2.5767118E-2,6.9399155E-4,4.229843E-2,-5.0171103E-2,2.6365537E-2,-5.485011E-2,2.7333546E-2,4.714506E-2,-4.0962975E-2,4.6823554E-2,1.0196723E-2,-1.7264342E-2,4.331044E-3,1.5686499E-2,6.4850873E-3,-3.4562107E-2,1.869231E-2,6.419321E-2,-1.7578106E-2,1.1337656E-2,1.2076457E-2,2.3093363E-2,3.4165736E-2,5.9057057E-2,-4.051089E-2,3.4079567E-2,-8.247184E-2,-1.12341335E-2,1.4609103E-2,6.0586046E-2,4.4310153E-3,5.020217E-2,-8.860674E-3,4.6736505E-2,-3.2393124E-2,4.1002534E-2,5.0019205E-2,6.405076E-2],"categories":[],"categories_nodes":[],"categories_segments":[],"categories_sizes":[],"default_left":[0,0,0,0,0,0,0,0,0,0,0,0,0,0,0,0,0,0,0,0,0,0,0,0,0,0,0,0,0,0,0,0,0,0,0,0,0,0,0,0,0,0,0,0,0,0,0,0,0,0,0,0,0,0,0,0,0,0,0,0,0,0,0,0,0,0,0,0,0,0,0,0,0,0,0,0,0,0,0,0,0,0,0,0,0,0,0,0,0,0,0,0,0,0,0,0,0,0,0,0,0,0,0,0,0,0,0,0,0,0,0,0,0,0,0,0,0,0,0,0,0,0,0],"id":12,"left_children":[1,3,5,7,9,11,13,15,17,19,21,23,25,27,29,31,33,35,37,39,41,43,45,47,49,51,53,55,57,59,61,63,65,67,69,71,73,75,77,79,81,83,85,87,89,91,93,95,97,99,101,103,105,-1,107,109,111,113,115,-1,117,119,121,-1,-1,-1,-1,-1,-1,-1,-1,-1,-1,-1,-1,-1,-1,-1,-1,-1,-1,-1,-1,-1,-1,-1,-1,-1,-1,-1,-1,-1,-1,-1,-1,-1,-1,-1,-1,-1,-1,-1,-1,-1,-1,-1,-1,-1,-1,-1,-1,-1,-1,-1,-1,-1,-1,-1,-1,-1,-1,-1,-1],"loss_changes":[1.8343094E3,2.4559174E2,2.3734131E2,1.1547998E2,1.3406955E2,1.3084882E2,1.7347107E1,5.5335327E1,2.4872559E1,4.364141E1,2.8212357E1,3.827736E1,3.650641E1,1.897593E1,7.0242004E0,2.1780243E1,2.087201E1,2.4010605E1,2.2027061E1,2.0856918E1,1.9713303E1,1.7420341E1,1.1004341E1,2.0977015E1,2.7651627E1,2.728897E1,1.191571E1,1.7883625E1,8.543182E0,1.010456E1,4.9706116E0,7.55838E0,1.7295273E1,1.8507202E1,2.037146E1,1.887976E1,2.1810453E1,2.0015343E1,1.4358208E1,1.309259E1,1.1474152E1,1.4739237E1,1.758415E1,8.144208E0,1.7274288E1,7.625107E0,9.447309E0,1.7774479E1,1.5025394E1,1.8490025E1,1.3725914E1,1.8015903E1,2.4444977E1,0E0,8.682053E0,7.9284215E0,6.9609156E0,1.3442373E1,6.288582E0,0E0,3.0184255E0,7.2409306E0,2.961731E0,0E0,0E0,0E0,0E0,0E0,0E0,0E0,0E0,0E0,0E0,0E0,0E0,0E0,0E0,0E0,0E0,0E0,0E0,0E0,0E0,0E0,0E0,0E0,0E0,0E0,0E0,0E0,0E0,0E0,0E0,0E0,0E0,0E0,0E0,0E0,0E0,0E0,0E0,0E0,0E0,0E0,0E0,0E0,0E0,0E0,0E0,0E0,0E0,0E0,0E0,0E0,0E0,0E0,0E0,0E0,0E0,0E0,0E0,0E0,0E0],"parents":[2147483647,0,0,1,1,2,2,3,3,4,4,5,5,6,6,7,7,8,8,9,9,10,10,11,11,12,12,13,13,14,14,15,15,16,16,17,17,18,18,19,19,20,20,21,21,22,22,23,23,24,24,25,25,26,26,27,27,28,28,29,29,30,30,31,31,32,32,33,33,34,34,35,35,36,36,37,37,38,38,39,39,40,40,41,41,42,42,43,43,44,44,45,45,46,46,47,47,48,48,49,49,50,50,51,51,52,52,54,54,55,55,56,56,57,57,58,58,60,60,61,61,62,62],"right_children":[2,4,6,8,10,12,14,16,18,20,22,24,26,28,30,32,34,36,38,40,42,44,46,48,50,52,54,56,58,60,62,64,66,68,70,72,74,76,78,80,82,84,86,88,90,92,94,96,98,100,102,104,106,-1,108,110,112,114,116,-1,118,120,122,-1,-1,-1,-1,-1,-1,-1,-1,-1,-1,-1,-1,-1,-1,-1,-1,-1,-1,-1,-1,-1,-1,-1,-1,-1,-1,-1,-1,-1,-1,-1,-1,-1,-1,-1,-1,-1,-1,-1,-1,-1,-1,-1,-1,-1,-1,-1,-1,-1,-1,-1,-1,-1,-1,-1,-1,-1,-1,-1,-1],"split_conditions":[3.16E1,4.9E1,8.949E1,4.49E-1,2.3208014E1,9.78E-1,1.435E0,9.66E0,1.376E1,6.75E-1,6.151E1,7.29E1,1.609E0,3.8028183E0,1.8754308E0,4.9750888E2,5.1930575E0,2.75E2,2.477418E0,2.018E1,2.787E1,2.831E1,4.16E-1,3.87E-1,5.96E-1,5.949E1,5.321E1,2.14E2,1.6649301E6,4.6502106E2,6.4580694E5,2.538E1,1.6679602E6,2.223E1,5.0617484E2,4.7365027E2,4.60757E0,2.624E1,1.6655361E6,4.8974063E2,1.996143E0,6.533823E5,2.858E1,5E-2,2.049E1,3.24E-1,2.965E1,6.4853406E5,1.045423E1,5.45E-1,5.716803E2,4.7247723E2,7E0,-6.1269242E-2,1.485E2,2.694E1,7.623E1,7.918E1,7.72E-1,-7.072645E-2,1.6661421E6,4.1262145E0,2.3827011E1,-1.3829832E-2,-5.829088E-2,-3.856713E-2,3.1210197E-2,-3.463593E-2,-2.0226061E-2,-3.21142E-2,-1.240213E-2,-5.0226916E-2,-2.4968322E-2,-2.4324292E-2,9.981683E-3,-3.1106463E-2,-3.0135792E-3,-7.0499466E-3,-1.7784642E-2,-3.3923157E-2,-1.7092273E-2,-2.9503956E-2,-8.5967975E-3,-1.9875713E-2,5.1885E-3,